2.556745111942291260e-01
2.024328559637069702e-01
4.111115261912345886e-02
5.640958622097969055e-02
1.194903552532196045e-01
2.470220327377319336e-01
1.590698808431625366e-01
-6.141609698534011841e-02
9.136552363634109497e-02
-1.286053657531738281e-01
-3.128193318843841553e-02
2.417494170367717743e-02
-2.322907559573650360e-02
-2.054661363363265991e-01
-8.530383557081222534e-02
5.518282949924468994e-02
-1.354844309389591217e-03
-1.159466505050659180e-01
3.838164210319519043e-01
5.327422916889190674e-02
-7.552917115390300751e-03
9.203036874532699585e-02
-5.536958947777748108e-02
1.290502399206161499e-02
-8.798526600003242493e-03
1.026110798120498657e-01
1.307274494320154190e-02
4.033488407731056213e-02
2.918612658977508545e-01
-1.924549043178558350e-01
-3.333946689963340759e-02
6.909560412168502808e-02
-6.448812782764434814e-02
5.173508822917938232e-02
-2.045155316591262817e-01
1.985104531049728394e-01
3.759907931089401245e-02
2.395507693290710449e-02
-2.287607640027999878e-02
-1.401368528604507446e-01
1.500397920608520508e-01
2.082313746213912964e-01
-2.449663169682025909e-02
3.034179657697677612e-02
3.555316478013992310e-02
-2.044837027788162231e-01
1.545833498239517212e-01
1.338358316570520401e-02
2.001689076423645020e-01
4.475996270775794983e-02
8.063002675771713257e-02
-7.371075451374053955e-02
-4.067512601613998413e-02
2.034634724259376526e-02
5.832899361848831177e-02
-1.181808188557624817e-01
-3.321718424558639526e-02
1.422118991613388062e-01
-7.958324998617172241e-02
3.240440785884857178e-02
1.447472907602787018e-02
3.215807974338531494e-01
-5.028880760073661804e-02
9.917571442201733589e-04
-7.009302265942096710e-03
-2.074151299893856049e-02
-7.812265306711196899e-02
1.048940196633338928e-01
-1.150824129581451416e-01
5.457527562975883484e-02
6.634236127138137817e-02
2.658210098743438721e-01
1.651357114315032959e-01
3.965251147747039795e-02
-6.363524496555328369e-02
-1.365556865930557251e-01
-1.197005510330200195e-01
2.805249691009521484e-01
-1.912070214748382568e-01
1.821647584438323975e-01
1.210881918668746948e-01
-2.122853994369506836e-01
-1.256189644336700439e-01
-5.157287418842315674e-02
1.122936140745878220e-02
6.672671437263488770e-02
2.657734453678131104e-01
2.435224875807762146e-02
2.399813830852508545e-01
1.981452703475952148e-01
-7.815133035182952881e-02
-4.703945666551589966e-02
-1.553487926721572876e-01
-2.127680182456970215e-01
-1.788278371095657349e-01
1.087686941027641296e-01
-1.344662159681320190e-02
1.230344921350479126e-01
1.465634107589721680e-01
2.337751984596252441e-01
