1.053026318550109863e-01
-2.531363666057586670e-01
1.868046522140502930e-01
-4.249161183834075928e-01
1.235963702201843262e-01
3.406385332345962524e-02
-1.895215809345245361e-01
-4.837008193135261536e-02
-4.319936782121658325e-02
3.225189149379730225e-01
-7.017635703086853027e-01
-4.768376648426055908e-01
2.973445057868957520e-01
-3.447843790054321289e-01
2.706484496593475342e-01
8.241996169090270996e-02
-3.657687306404113770e-01
1.321580857038497925e-01
1.155115365982055664e-01
1.885262727737426758e-01
-4.469440579414367676e-01
-1.384217292070388794e-01
-3.148367404937744141e-01
-2.704451382160186768e-01
2.859472632408142090e-01
1.360999792814254761e-02
3.720909357070922852e-01
2.810850739479064941e-01
4.190222322940826416e-01
2.300910353660583496e-01
-2.490790188312530518e-01
-7.459425181150436401e-02
1.893770247697830200e-01
-9.494275450706481934e-01
-5.315243005752563477e-01
-3.452660143375396729e-01
3.693384826183319092e-01
-2.744485735893249512e-01
9.916030615568161011e-02
-8.631560206413269043e-01
1.529106497764587402e-02
-9.877082705497741699e-01
-7.019433975219726562e-01
3.597090542316436768e-01
-6.671128422021865845e-02
-1.809465885162353516e-02
-3.483409285545349121e-01
5.505260825157165527e-01
1.080417782068252563e-01
-5.182828903198242188e-01
1.040513142943382263e-01
9.035571664571762085e-02
-9.170216508209705353e-03
-5.814279317855834961e-01
3.930060565471649170e-01
-2.011827677488327026e-01
2.483287267386913300e-02
-6.411349177360534668e-01
-4.038886725902557373e-02
-7.141896337270736694e-02
3.613460436463356018e-02
-1.458459496498107910e-01
8.047891408205032349e-02
7.542815059423446655e-02
3.448097407817840576e-01
-7.997673153877258301e-01
-7.891631126403808594e-01
2.374859713017940521e-02
4.719964861869812012e-01
2.743281126022338867e-01
-5.721629261970520020e-01
-5.858187079429626465e-01
-3.959133923053741455e-01
2.203459739685058594e-01
1.975956708192825317e-01
-1.237597223371267319e-02
-8.890098929405212402e-01
-1.277048438787460327e-01
9.805515408515930176e-02
-6.321780085563659668e-01
-3.172509968280792236e-01
3.467858731746673584e-01
-1.115331575274467468e-01
2.342629581689834595e-01
3.446882367134094238e-01
-7.706148028373718262e-01
2.840653359889984131e-01
-5.710211396217346191e-01
3.583228960633277893e-02
-5.800482630729675293e-01
-8.302775621414184570e-01
-7.402285188436508179e-02
-1.502543389797210693e-01
1.153213381767272949e-01
-3.243510425090789795e-02
5.130668729543685913e-02
1.425293534994125366e-01
6.486923992633819580e-02
-1.795762479305267334e-01
-1.647928953170776367e-01
4.364586770534515381e-01
1.340845525264739990e-01
-7.019445300102233887e-01
1.192432940006256104e-01
2.538676559925079346e-01
9.864306449890136719e-02
1.980716139078140259e-01
2.926064133644104004e-01
3.307591974735260010e-01
-2.622712850570678711e-01
9.286930412054061890e-02
4.702579602599143982e-02
-2.210426330566406250e-01
2.016246616840362549e-01
5.421782284975051880e-02
-6.078398823738098145e-01
-3.480108380317687988e-01
-9.966119192540645599e-03
-7.369586229324340820e-01
-7.009817361831665039e-01
-2.221324145793914795e-01
2.787351049482822418e-02
-1.706604808568954468e-01
3.150509297847747803e-01
-2.842141091823577881e-01
-2.454013191163539886e-02
-3.282051086425781250e-01
-5.247473716735839844e-01
1.137758940458297729e-01
1.038278192281723022e-01
2.262219041585922241e-01
2.066988199949264526e-01
2.242602780461311340e-02
3.617297708988189697e-01
2.169793695211410522e-01
-3.061389923095703125e-01
-5.918595194816589355e-01
-1.018460839986801147e-01
2.051551342010498047e-01
2.091559767723083496e-01
-1.238385960459709167e-01
7.164695858955383301e-01
9.491120576858520508e-01
-3.104700148105621338e-01
-3.236205279827117920e-01
9.779715538024902344e-02
3.033140301704406738e-01
-5.561557039618492126e-02
4.152300208806991577e-02
3.357129991054534912e-01
-3.709454536437988281e-01
-3.852356672286987305e-01
2.543917894363403320e-01
-3.581660687923431396e-01
3.326792120933532715e-01
9.639292210340499878e-02
7.712339162826538086e-01
-5.561339259147644043e-01
-5.101885795593261719e-01
4.244770109653472900e-01
-2.070627659559249878e-01
2.736273407936096191e-01
3.459661602973937988e-01
4.429518878459930420e-01
-1.711554229259490967e-01
-5.741512179374694824e-01
-1.006122585386037827e-02
-4.202841520309448242e-01
-3.881223797798156738e-01
1.586865037679672241e-01
-9.971218705177307129e-01
5.157709717750549316e-01
-3.883664011955261230e-01
2.141900807619094849e-01
6.002029776573181152e-02
5.290706753730773926e-01
-3.206121623516082764e-01
-7.084845304489135742e-01
-1.210916191339492798e-01
-4.800269007682800293e-01
3.720327615737915039e-01
-7.071905136108398438e-01
7.449202705174684525e-03
-4.651495516300201416e-01
-2.107359468936920166e-01
1.689979881048202515e-01
-7.545628547668457031e-01
8.494397997856140137e-02
-1.298907101154327393e-01
-8.444362320005893707e-03
1.840853318572044373e-02
-3.260306715965270996e-01
-4.376988708972930908e-01
4.613527283072471619e-02
-4.243878722190856934e-01
4.009464681148529053e-01
-1.142278194427490234e+00
4.064788818359375000e-01
-3.432270288467407227e-01
6.929374486207962036e-02
2.127726078033447266e-01
9.894766658544540405e-02
2.537483274936676025e-01
-6.996502876281738281e-01
2.310465276241302490e-01
-1.166770339012145996e+00
1.125475950539112091e-02
2.626708149909973145e-01
2.293742001056671143e-01
3.609332144260406494e-01
-1.647473424673080444e-01
-8.741585165262222290e-02
2.318364679813385010e-01
1.094789877533912659e-01
-5.279321968555450439e-02
4.518153369426727295e-01
1.729097217321395874e-02
-2.902618609368801117e-02
6.098126769065856934e-01
-1.142257228493690491e-01
6.814520061016082764e-02
2.540287375450134277e-01
1.537857502698898315e-01
3.301969766616821289e-01
-1.774862408638000488e-01
5.128397941589355469e-01
3.350275382399559021e-02
-6.331233382225036621e-01
2.353688776493072510e-01
1.807734221220016479e-01
4.619441330432891846e-01
-7.369163036346435547e-01
2.082933187484741211e-01
4.112712666392326355e-02
8.955080062150955200e-02
4.746480882167816162e-01
3.444356620311737061e-01
-2.793821692466735840e-01
-2.112113386392593384e-01
1.788184605538845062e-02
-1.624871417880058289e-02
-3.290912210941314697e-01
-3.711371123790740967e-01
-1.276281923055648804e-01
-5.421603471040725708e-02
3.025183975696563721e-01
6.645395606756210327e-02
-6.361505985260009766e-01
1.750084385275840759e-02
3.880883455276489258e-01
-7.098583132028579712e-02
-1.084093749523162842e-01
4.804315865039825439e-01
-1.215441584587097168e+00
4.134265482425689697e-01
1.477005481719970703e-01
-3.597887754440307617e-01
-2.240869104862213135e-01
1.022298187017440796e-01
-2.810419499874114990e-01
3.462124466896057129e-01
-4.945163726806640625e-01
2.894360423088073730e-01
3.135930299758911133e-01
1.224723979830741882e-01
-8.356776833534240723e-01
-6.436238288879394531e-01
1.212836951017379761e-01
1.687801629304885864e-01
-6.996237635612487793e-01
-8.379567265510559082e-01
-5.913027524948120117e-01
2.310715168714523315e-01
7.659143209457397461e-02
7.602911442518234253e-02
-7.306470721960067749e-02
4.345000386238098145e-01
2.078631967306137085e-01
2.796110510826110840e-01
-5.956042408943176270e-01
-5.573163926601409912e-02
1.390924900770187378e-01
1.171142458915710449e-01
6.661312282085418701e-02
-6.021094322204589844e-01
-3.043527603149414062e-01
-6.572376191616058350e-02
1.735876053571701050e-01
-3.128264844417572021e-01
-5.054568648338317871e-01
-1.886045038700103760e-01
5.104044079780578613e-01
1.480824798345565796e-01
1.593278795480728149e-01
1.196529641747474670e-01
5.076659917831420898e-01
-4.866661131381988525e-01
1.082328259944915771e-01
1.582044512033462524e-01
-1.031200885772705078e-01
-2.660045027732849121e-01
2.689331024885177612e-02
-3.535485267639160156e-01
3.727648556232452393e-01
-5.808433890342712402e-01
-7.465403527021408081e-02
-6.506795287132263184e-01
-1.096712425351142883e-02
-2.237123996019363403e-01
1.284983903169631958e-01
3.976383507251739502e-01
-7.068992126733064651e-03
9.073519706726074219e-02
2.523866891860961914e-01
9.098086506128311157e-02
1.786079816520214081e-02
-3.678121268749237061e-01
2.213532477617263794e-01
-5.392430722713470459e-02
-1.117398738861083984e-01
4.352741241455078125e-01
-4.361911118030548096e-01
3.858713507652282715e-01
5.508431792259216309e-02
1.492923945188522339e-01
-2.357443980872631073e-02
-3.950256407260894775e-01
1.207697167992591858e-01
-3.969929218292236328e-01
2.346460521221160889e-02
2.797446958720684052e-02
1.461072266101837158e-01
-2.474530488252639771e-01
-7.142267227172851562e-01
4.623313248157501221e-01
-4.124133884906768799e-01
9.615312330424785614e-03
1.946684718132019043e-01
2.098865658044815063e-01
4.020334482192993164e-01
1.120296865701675415e-01
-1.670072823762893677e-01
-4.650841653347015381e-02
-3.287897258996963501e-02
3.599621355533599854e-02
7.170387357473373413e-02
-1.035878777503967285e+00
-2.371517419815063477e-01
-1.266171783208847046e-01
-1.451320350170135498e-01
-2.605294585227966309e-01
4.321982562541961670e-01
-4.280410706996917725e-01
3.946565389633178711e-01
-8.286016993224620819e-03
1.618368625640869141e-01
-1.598279178142547607e-02
1.630270481109619141e-01
2.378959059715270996e-01
-1.957367062568664551e-01
1.581124663352966309e-01
-7.522658705711364746e-01
-2.616010047495365143e-02
2.315753102302551270e-01
1.897390335798263550e-01
3.358796834945678711e-01
3.723674118518829346e-01
-4.371081590652465820e-01
1.508852690458297729e-01
-4.454572796821594238e-01
5.680470541119575500e-02
-6.429424881935119629e-01
-4.536979794502258301e-01
4.361944198608398438e-01
5.043701082468032837e-02
3.513375520706176758e-01
1.280231624841690063e-01
-5.085874795913696289e-01
6.395113468170166016e-02
-2.801751792430877686e-01
-1.337883174419403076e-01
1.988873779773712158e-01
1.788507997989654541e-01
2.449667602777481079e-01
-6.053613424301147461e-01
8.496048860251903534e-03
-1.632880866527557373e-01
-2.756638228893280029e-01
-1.410390138626098633e-01
2.769556045532226562e-01
3.638652563095092773e-01
5.496626496315002441e-01
2.523650228977203369e-01
1.128417328000068665e-01
2.583969831466674805e-01
-2.955560339614748955e-03
-3.018670082092285156e-01
-9.078987836837768555e-01
2.871645987033843994e-01
-2.860386855900287628e-02
4.042058289051055908e-01
1.188773587346076965e-01
2.562500536441802979e-01
-3.784675002098083496e-01
3.207139074802398682e-01
2.540773451328277588e-01
4.618801549077033997e-02
-6.373735666275024414e-01
-3.788032382726669312e-02
-1.052242279052734375e+00
1.234804466366767883e-01
-2.213586717844009399e-01
-1.026494622230529785e+00
3.163037449121475220e-02
-6.998223066329956055e-01
-2.384550273418426514e-01
-7.182881236076354980e-01
4.860363900661468506e-01
-6.413676738739013672e-01
8.328234404325485229e-02
-7.062166333198547363e-01
2.856945991516113281e-01
3.179895281791687012e-01
2.681106626987457275e-01
5.164169520139694214e-02
3.183214366436004639e-01
-5.510724186897277832e-01
7.434118539094924927e-02
3.213480412960052490e-01
-8.681765198707580566e-01
-2.137973755598068237e-01
-1.090121865272521973e-01
-6.186893582344055176e-01
-1.873152107000350952e-01
-1.970656067132949829e-01
-1.157606542110443115e-01
-5.234518647193908691e-01
-3.968792408704757690e-02
-3.080682829022407532e-02
-1.213259816169738770e+00
1.621364206075668335e-01
3.985233902931213379e-01
-3.963884115219116211e-01
-5.908145308494567871e-01
-3.361660242080688477e-02
-2.459464222192764282e-01
3.654057681560516357e-01
2.252428233623504639e-01
3.224027156829833984e-01
-3.313407599925994873e-01
-5.689720511436462402e-01
-3.484853506088256836e-01
-4.414713978767395020e-01
-7.292235642671585083e-02
-3.077274188399314880e-02
-4.676831662654876709e-01
7.422872781753540039e-01
1.587730944156646729e-01
-2.145375609397888184e-01
6.853454709053039551e-01
1.628065258264541626e-01
-6.411018371582031250e-01
-9.274451732635498047e-01
-2.373572885990142822e-01
7.387893274426460266e-03
-5.427284240722656250e-01
-2.633025348186492920e-01
3.005582988262176514e-01
-3.817787468433380127e-01
-5.467940121889114380e-02
6.434742212295532227e-01
7.164721488952636719e-01
3.115506768226623535e-01
-1.538874357938766479e-01
-2.754863202571868896e-01
5.443018674850463867e-01
-2.339214980602264404e-01
9.949905425310134888e-02
-4.323844909667968750e-01
-8.013625144958496094e-01
-1.497346609830856323e-01
-4.356236457824707031e-01
1.648738235235214233e-02
-5.645635128021240234e-01
5.030211210250854492e-01
3.209865987300872803e-01
2.693284749984741211e-01
-2.851366102695465088e-01
1.780017316341400146e-01
2.194171398878097534e-01
5.687986016273498535e-01
-4.116733670234680176e-01
-7.046438455581665039e-01
-3.193661272525787354e-01
2.094630002975463867e-01
4.149475097656250000e-01
-5.722938179969787598e-01
2.481989860534667969e-01
8.091504126787185669e-02
7.455450296401977539e-02
-8.846622705459594727e-01
-1.194445714354515076e-01
-3.461528420448303223e-01
1.577268540859222412e-01
1.037349179387092590e-01
-3.410298377275466919e-02
1.241279318928718567e-01
1.895356625318527222e-01
-3.079988062381744385e-01
-1.314592957496643066e-01
4.655131399631500244e-01
-6.305052638053894043e-01
-3.980260342359542847e-02
1.427492052316665649e-01
1.192765776067972183e-02
1.486440896987915039e-01
3.420514166355133057e-01
-5.808582901954650879e-01
4.542876183986663818e-01
1.695502549409866333e-01
1.775543540716171265e-01
-9.400452673435211182e-02
5.984334945678710938e-01
-1.167094945907592773e+00
-3.314213082194328308e-02
6.077865511178970337e-02
-4.952021241188049316e-01
2.022908255457878113e-02
3.658524751663208008e-01
2.895453199744224548e-02
3.953711092472076416e-01
-9.149715304374694824e-02
1.911860853433609009e-01
-3.362843990325927734e-01
-6.477997303009033203e-01
1.267254501581192017e-01
-1.563488990068435669e-01
7.850337028503417969e-02
-1.799528896808624268e-01
1.446542739868164062e-01
2.291153185069561005e-02
3.568188548088073730e-01
6.771450042724609375e-01
7.352179288864135742e-02
-7.052160054445266724e-02
-1.142192840576171875e+00
1.020270138978958130e-01
-5.672037601470947266e-01
1.620131731033325195e-01
-2.834007143974304199e-01
1.400519311428070068e-01
-1.662399619817733765e-01
-4.790707230567932129e-01
4.814775288105010986e-01
5.145777463912963867e-01
8.100360631942749023e-03
-2.086653262376785278e-01
1.108695715665817261e-01
2.353738844394683838e-01
-1.376740485429763794e-01
-2.003975957632064819e-01
5.407707095146179199e-01
1.971941143274307251e-01
-3.508509695529937744e-01
-4.344401508569717407e-02
4.924257993698120117e-01
5.532101392745971680e-01
-6.764905527234077454e-03
-7.298762202262878418e-01
2.021297514438629150e-01
2.830392420291900635e-01
2.324619442224502563e-01
3.109760880470275879e-01
-9.509896636009216309e-01
6.698281317949295044e-02
-9.462971687316894531e-01
-2.285880595445632935e-02
3.752119839191436768e-01
-5.537071228027343750e-01
6.376747488975524902e-01
-7.458999752998352051e-01
5.005002394318580627e-02
6.824997812509536743e-02
3.983727991580963135e-01
1.411740034818649292e-01
-4.183021187782287598e-01
1.739744842052459717e-02
-3.367281705141067505e-02
5.216848477721214294e-02
3.023778498172760010e-01
-3.921000659465789795e-01
-4.287337064743041992e-01
1.780975461006164551e-01
-9.480056911706924438e-02
-6.023254394531250000e-01
-3.693573772907257080e-01
6.448217630386352539e-01
-6.186754107475280762e-01
1.692008674144744873e-01
7.788129150867462158e-02
-5.874269455671310425e-02
2.516539692878723145e-01
-2.661881148815155029e-01
2.484353929758071899e-01
4.286307469010353088e-02
1.105287764221429825e-02
3.086284101009368896e-01
-7.894911170005798340e-01
1.919468045234680176e-01
2.755420804023742676e-01
-6.888593435287475586e-01
-8.348684012889862061e-02
-5.827944278717041016e-01
-8.555919528007507324e-01
-6.086415052413940430e-01
-3.000721633434295654e-01
4.813255071640014648e-01
2.587079405784606934e-01
-8.507974743843078613e-01
2.860664427280426025e-01
-7.913957238197326660e-01
3.894108235836029053e-01
1.943951658904552460e-02
-9.041594862937927246e-01
6.109761074185371399e-02
-8.013410568237304688e-01
1.710385978221893311e-01
1.320241242647171021e-01
2.703092806041240692e-02
1.562656462192535400e-01
-3.137526214122772217e-01
-9.967772364616394043e-01
1.738916784524917603e-01
-2.696771025657653809e-01
-7.424136400222778320e-01
3.013415038585662842e-01
-2.401274442672729492e-01
-3.280818164348602295e-01
-1.046028137207031250e-01
-8.073994517326354980e-01
-2.820558659732341766e-02
-2.101966738700866699e-02
-3.865657746791839600e-01
-1.298281252384185791e-01
1.456034034490585327e-01
-2.234515100717544556e-01
-2.651979625225067139e-01
3.410619199275970459e-01
-1.510293483734130859e-01
-2.045190334320068359e-01
1.791744232177734375e-01
2.526407539844512939e-01
3.263998925685882568e-01
-7.552678585052490234e-01
-1.374277323484420776e-01
-6.463046669960021973e-01
1.563001573085784912e-01
-9.271987676620483398e-01
-3.614796102046966553e-01
3.501160740852355957e-01
2.546288967132568359e-01
4.790441691875457764e-01
8.955043554306030273e-02
4.530556872487068176e-02
2.738135755062103271e-01
6.170682311058044434e-01
-1.663005799055099487e-01
-8.033355325460433960e-02
-1.571151912212371826e-01
3.306793868541717529e-01
1.727808862924575806e-01
-1.958064138889312744e-01
2.696303129196166992e-01
2.059950381517410278e-01
1.334288865327835083e-01
-4.847213923931121826e-01
-6.737471818923950195e-01
2.570360898971557617e-01
-7.801299691200256348e-01
4.082623720169067383e-01
6.771838068962097168e-01
1.788801550865173340e-01
2.627001106739044189e-01
3.338340222835540771e-01
-2.599258720874786377e-01
-9.358160495758056641e-01
1.897319853305816650e-01
-5.508852005004882812e-01
-2.296660691499710083e-01
-1.139770001173019409e-01
-2.085428237915039062e-01
-6.797744631767272949e-01
-2.471578717231750488e-01
7.571370899677276611e-02
-3.146397769451141357e-01
-1.478274464607238770e-01
5.070329308509826660e-01
-3.002324886620044708e-02
9.242916107177734375e-02
-2.790292799472808838e-01
5.226801633834838867e-01
-2.172085791826248169e-01
6.457707844674587250e-03
-4.405657947063446045e-01
-7.180656790733337402e-01
2.364190071821212769e-01
-3.578789159655570984e-02
-1.391371041536331177e-01
3.247001171112060547e-01
-3.042716383934020996e-01
-8.555849194526672363e-01
1.158805340528488159e-01
1.172807067632675171e-02
9.727893024682998657e-02
2.607305347919464111e-01
2.560905218124389648e-01
-4.719709455966949463e-01
-3.488811552524566650e-01
5.962780714035034180e-01
3.106467425823211670e-01
-1.432203054428100586e-01
-1.591417193412780762e-02
4.444726184010505676e-02
-1.949799507856369019e-01
1.587062180042266846e-01
-4.155094623565673828e-01
6.575929373502731323e-02
1.763474196195602417e-01
1.500112116336822510e-01
-4.441882669925689697e-01
1.692974567413330078e-01
9.712353348731994629e-03
-3.049503564834594727e-01
2.116458863019943237e-01
-1.878612339496612549e-01
-6.224862933158874512e-01
3.720551133155822754e-01
2.174054086208343506e-02
-1.834274083375930786e-01
5.053430795669555664e-01
-2.106642425060272217e-01
-3.039887249469757080e-01
-1.841675043106079102e-01
-5.614551305770874023e-01
-2.165071666240692139e-01
-2.343215281143784523e-03
-1.167544424533843994e-01
8.932765573263168335e-02
-4.390721619129180908e-01
6.013010144233703613e-01
-3.114289939403533936e-01
-1.178696155548095703e-01
2.080164253711700439e-01
-4.178807437419891357e-01
-2.976746857166290283e-01
-1.231820955872535706e-01
2.603139877319335938e-01
2.306834906339645386e-01
6.519336998462677002e-02
1.934971362352371216e-01
3.357989480718970299e-03
8.538503199815750122e-03
-3.112203180789947510e-01
4.097351729869842529e-01
-7.270607948303222656e-01
1.044958829879760742e-01
3.090286850929260254e-01
4.916338324546813965e-01
-1.439004391431808472e-01
-1.042651832103729248e-01
-3.174341619014739990e-01
-1.119702160358428955e-01
2.708409130573272705e-01
2.077446877956390381e-01
-1.671921610832214355e-01
1.184768527746200562e-01
3.088634014129638672e-01
-6.939060986042022705e-02
3.325342535972595215e-01
6.775444149971008301e-01
1.814065277576446533e-01
8.432228118181228638e-02
6.818640232086181641e-02
-7.887892127037048340e-01
-9.272970259189605713e-02
1.492020394653081894e-02
5.992238223552703857e-02
4.466672539710998535e-01
-3.019699640572071075e-02
-2.449201047420501709e-01
2.270420789718627930e-01
5.116386413574218750e-01
-3.176850378513336182e-01
-3.438364267349243164e-01
-3.020838201045989990e-01
-4.723599255084991455e-01
3.829284310340881348e-01
4.843872189521789551e-01
-7.133125066757202148e-01
-1.732326447963714600e-01
-3.477236628532409668e-01
2.337530106306076050e-01
-2.419497817754745483e-01
3.949557840824127197e-01
1.481298804283142090e-01
-1.139862611889839172e-01
3.373154997825622559e-01
-4.936835765838623047e-01
3.317004144191741943e-01
5.079070851206779480e-02
-6.016170978546142578e-01
4.461875259876251221e-01
1.475072354078292847e-01
1.835217475891113281e-01
1.573802530765533447e-01
-5.209527015686035156e-01
2.419282346963882446e-01
-3.704015910625457764e-01
-6.347103118896484375e-01
-4.423567652702331543e-01
-5.120726227760314941e-01
5.886771678924560547e-01
-5.826203823089599609e-01
-1.178194675594568253e-02
-3.447283431887626648e-02
5.652800574898719788e-02
2.669493556022644043e-01
2.596965134143829346e-01
-1.952940225601196289e-01
-1.167228817939758301e-01
-4.590333700180053711e-01
-4.736795276403427124e-02
1.863968931138515472e-02
4.655603766441345215e-01
-4.223373234272003174e-01
2.908820807933807373e-01
-1.420644223690032959e-01
2.534396946430206299e-01
-1.975309476256370544e-02
-1.086880192160606384e-01
2.876135706901550293e-01
-2.538007199764251709e-01
-5.036774873733520508e-01
2.389780580997467041e-01
1.735934019088745117e-01
2.497367262840270996e-01
1.130913794040679932e-01
-6.285304427146911621e-01
1.268622130155563354e-01
-4.180537760257720947e-01
3.294592350721359253e-02
1.424801498651504517e-01
-1.404903531074523926e-01
-7.574319243431091309e-01
-4.688931405544281006e-01
4.341615736484527588e-01
-4.830501973628997803e-01
5.226058140397071838e-02
2.877720296382904053e-01
-3.131636977195739746e-01
-1.158619284629821777e+00
2.272762730717658997e-02
-9.436985105276107788e-02
-7.723205685615539551e-01
2.447832003235816956e-02
-8.296887576580047607e-02
-2.666215002536773682e-01
-5.381733179092407227e-01
9.829898772295564413e-05
-1.611819416284561157e-01
-4.594047665596008301e-01
9.070497006177902222e-02
-4.463604092597961426e-01
-4.149023890495300293e-01
1.689206808805465698e-01
-2.389947324991226196e-01
2.515194714069366455e-01
8.809077739715576172e-02
-3.472098335623741150e-02
-3.291419446468353271e-01
-7.192871719598770142e-02
-1.193206682801246643e-01
3.673351020552217960e-04
-2.575866281986236572e-01
-3.457607328891754150e-01
-4.247658252716064453e-01
-4.326415248215198517e-03
-5.141003727912902832e-01
1.203204393386840820e-01
3.002517521381378174e-01
1.590582728385925293e-01
-7.186499834060668945e-01
4.223470687866210938e-01
8.000357449054718018e-02
3.874612152576446533e-01
-6.180340051651000977e-01
1.422466635704040527e-01
-2.872020006179809570e-01
3.291470929980278015e-02
1.680015325546264648e-01
-3.409067690372467041e-01
-1.666821911931037903e-02
2.115645110607147217e-01
-2.524059116840362549e-01
-4.735687077045440674e-01
2.192933112382888794e-01
-6.750072836875915527e-01
4.367806315422058105e-01
-6.450479626655578613e-01
-4.838459789752960205e-01
4.101966321468353271e-01
1.016783341765403748e-01
-1.136191710829734802e-01
-2.802259325981140137e-01
2.194492965936660767e-01
-2.314824312925338745e-01
-1.530899107456207275e-01
-2.690545283257961273e-02
-5.313900113105773926e-01
1.901440620422363281e-01
5.178566575050354004e-01
-6.968094110488891602e-01
5.834454894065856934e-01
3.670126199722290039e-01
4.731319472193717957e-02
3.736033141613006592e-01
2.122503072023391724e-01
-6.032197549939155579e-02
-8.506455421447753906e-01
-4.550631716847419739e-02
-8.485147953033447266e-01
2.302349358797073364e-01
-2.436364255845546722e-02
-3.884521126747131348e-02
-3.838065266609191895e-01
-1.381727606058120728e-01
-5.256531238555908203e-01
2.460259050130844116e-01
5.308012012392282486e-03
-3.384542465209960938e-01
-6.891679763793945312e-02
-1.208691075444221497e-01
-1.738081574440002441e-01
1.117625981569290161e-01
9.350762516260147095e-02
2.809836566448211670e-01
3.779542744159698486e-01
1.435704827308654785e-01
-4.939312040805816650e-01
-1.438698410987854004e+00
-2.738578021526336670e-01
-2.516599297523498535e-01
-5.963803455233573914e-02
5.308055877685546875e-01
-1.881638020277023315e-01
2.666412293910980225e-01
-5.640432238578796387e-01
2.688838243484497070e-01
1.070900186896324158e-01
-1.003312826156616211e+00
3.411550223827362061e-01
3.969616293907165527e-01
-8.457801342010498047e-01
-1.195906162261962891e+00
-3.301095962524414062e-01
-1.180796846747398376e-01
3.392113149166107178e-01
4.085531532764434814e-01
5.277898311614990234e-01
1.685540378093719482e-01
1.368132084608078003e-01
-1.883658468723297119e-01
1.449899971485137939e-01
2.718940675258636475e-01
2.156033180654048920e-02
1.539696007966995239e-01
-8.547734022140502930e-01
-3.276007622480392456e-02
-1.423517316579818726e-01
-3.700077533721923828e-01
-2.698306739330291748e-01
2.165425121784210205e-01
-8.607876300811767578e-01
-3.237638175487518311e-01
3.977202475070953369e-01
1.732710376381874084e-02
1.752118617296218872e-01
3.356765210628509521e-01
-1.204029936343431473e-02
1.921107470989227295e-01
-3.308246433734893799e-01
-9.604843854904174805e-01
7.487359642982482910e-02
2.048829495906829834e-01
3.096129596233367920e-01
1.196742281317710876e-01
-5.491959303617477417e-02
1.318439245223999023e-01
-4.999603331089019775e-02
-2.125177718698978424e-02
