4.713867604732513428e-02
5.562096834182739258e-02
-6.335210800170898438e-02
-6.142087280750274658e-03
4.646961390972137451e-02
-7.865599542856216431e-02
7.288527488708496094e-02
-7.368549704551696777e-03
-6.203596293926239014e-02
6.346248090267181396e-02
3.511873632669448853e-02
1.924512535333633423e-02
-6.127133220434188843e-02
-8.492726087570190430e-02
-8.673001825809478760e-02
4.098671674728393555e-02
-5.305797606706619263e-02
3.272195905447006226e-02
4.486043751239776611e-02
-1.206642389297485352e-02
6.967763602733612061e-02
-6.865602731704711914e-02
5.872823297977447510e-02
4.298627376556396484e-02
4.729799926280975342e-02
-2.641346305608749390e-02
1.201341301202774048e-02
6.573529541492462158e-02
-5.827371776103973389e-02
4.230001568794250488e-02
1.000475883483886719e-02
5.336119234561920166e-02
4.433237016201019287e-03
-9.063854813575744629e-04
-1.229903921484947205e-01
-1.674657911062240601e-01
-1.008359715342521667e-01
-1.853632628917694092e-01
8.239115588366985321e-03
-2.265375405550003052e-01
-2.395645715296268463e-02
-2.726414203643798828e-01
1.414050459861755371e-01
-3.312641084194183350e-01
-3.011143803596496582e-01
-1.838963031768798828e-01
-1.851049512624740601e-01
-1.179486215114593506e-01
-1.053342744708061218e-01
-5.087147653102874756e-02
3.492586314678192139e-02
-3.847680985927581787e-02
-5.803114175796508789e-02
7.278433442115783691e-02
6.036941707134246826e-02
6.095071136951446533e-02
-1.317245513200759888e-02
1.280616968870162964e-02
5.311252176761627197e-02
-3.696358948945999146e-02
-7.019711285829544067e-02
6.478841602802276611e-02
-2.462120205163955688e-01
-1.884216368198394775e-01
-3.060808181762695312e-01
1.232909858226776123e-01
-2.460961416363716125e-02
-1.339005380868911743e-01
-3.037820458412170410e-01
-2.712786197662353516e-01
3.702440559864044189e-01
3.055825829505920410e-01
-4.096518084406852722e-02
6.259342283010482788e-02
5.377766117453575134e-02
9.021844714879989624e-02
-4.848996922373771667e-02
3.061011899262666702e-03
1.583266556262969971e-01
2.044146507978439331e-02
-2.276563644409179688e-02
4.281673580408096313e-02
-4.127394780516624451e-02
3.483287990093231201e-03
5.149748921394348145e-02
-5.507630854845046997e-02
-2.543363347649574280e-02
5.187056958675384521e-02
5.382756888866424561e-02
-1.686749234795570374e-02
-1.275780349969863892e-01
-2.185446768999099731e-01
-1.613339781761169434e-01
-3.607014119625091553e-01
-1.492700576782226562e-01
4.489712119102478027e-01
-5.482432246208190918e-02
-2.231701314449310303e-01
3.097984194755554199e-02
3.491420149803161621e-01
2.818032801151275635e-01
1.557837426662445068e-01
-8.741591870784759521e-02
-7.066656649112701416e-02
-1.729455441236495972e-01
-2.748884260654449463e-01
2.069888561964035034e-01
1.785055100917816162e-01
2.270943522453308105e-01
6.054193899035453796e-02
-1.149220764636993408e-02
7.565502822399139404e-02
5.363023281097412109e-02
-1.172629743814468384e-02
2.298810333013534546e-02
1.286719739437103271e-02
5.220872908830642700e-02
3.196609765291213989e-02
5.599050223827362061e-02
1.438236832618713379e-01
9.594676643610000610e-02
1.098594963550567627e-01
1.115257441997528076e-01
-4.498807340860366821e-02
-9.166822768747806549e-03
4.609750956296920776e-02
1.740250587463378906e-01
-4.444242641329765320e-02
1.071647405624389648e-01
1.008378118276596069e-01
-1.654447428882122040e-02
1.646826714277267456e-01
-3.673288226127624512e-02
5.845533311367034912e-02
3.426502645015716553e-01
1.768106967210769653e-01
-1.859556734561920166e-01
1.303972769528627396e-02
4.097049310803413391e-02
2.446661144495010376e-02
-2.850132808089256287e-02
7.977968454360961914e-02
5.119581520557403564e-02
2.022535055875778198e-01
3.110099732875823975e-01
3.404769003391265869e-01
4.208042919635772705e-01
1.050272807478904724e-01
2.770492136478424072e-01
1.800260096788406372e-01
5.115459486842155457e-02
7.900109887123107910e-02
1.040455177426338196e-01
-1.357143670320510864e-01
-1.992757767438888550e-01
-3.566983342170715332e-01
-5.232238769531250000e-02
1.631152480840682983e-01
2.010076791048049927e-01
2.907293736934661865e-01
2.780452668666839600e-01
2.875112295150756836e-01
6.081576645374298096e-02
2.318929284811019897e-01
2.754230499267578125e-01
-1.173328515142202377e-02
-3.106506764888763428e-01
3.349754959344863892e-02
-1.782745122909545898e-03
-2.643408626317977905e-02
1.178587824106216431e-01
1.408743858337402344e-01
2.265251874923706055e-01
2.904281020164489746e-01
2.406810410320758820e-02
-9.421938657760620117e-02
1.400725990533828735e-01
9.409023821353912354e-02
1.460881978273391724e-01
-1.588753610849380493e-01
1.742557883262634277e-01
-6.553913466632366180e-03
-2.968417406082153320e-01
-3.377580940723419189e-01
-1.355313807725906372e-01
-3.068494983017444611e-02
1.060820594429969788e-01
1.545056402683258057e-01
1.474471837282180786e-01
2.066798210144042969e-01
1.992425620555877686e-01
1.346250027418136597e-01
-7.233333587646484375e-02
-4.423668980598449707e-02
-2.341084778308868408e-01
-2.921072999015450478e-03
-4.401729255914688110e-02
5.147312209010124207e-02
1.126870736479759216e-01
2.666694223880767822e-01
3.064874708652496338e-01
1.443720608949661255e-02
1.034491434693336487e-01
3.836102783679962158e-02
-6.539560854434967041e-02
4.493409022688865662e-02
-1.261723190546035767e-01
6.272944062948226929e-02
9.984460473060607910e-02
-1.724341884255409241e-03
-8.821772038936614990e-02
-6.619878113269805908e-02
-9.701506048440933228e-02
-7.661608606576919556e-02
9.593137353658676147e-02
1.492956429719924927e-01
1.877272576093673706e-01
2.162486761808395386e-01
3.972831368446350098e-01
3.598411977291107178e-01
1.674305796623229980e-01
-1.991349644958972931e-02
-5.230637788772583008e-01
1.055721193552017212e-01
4.096865653991699219e-02
7.095344364643096924e-02
-5.087794363498687744e-02
3.816444426774978638e-02
1.465101633220911026e-02
-7.987794280052185059e-02
-5.374587699770927429e-02
-4.961357265710830688e-02
1.432970724999904633e-02
4.277681931853294373e-02
1.433399971574544907e-02
5.770952999591827393e-02
1.305773705244064331e-01
-1.485765278339385986e-01
-1.235643550753593445e-01
-1.391319837421178818e-02
-6.113866716623306274e-02
-4.066817834973335266e-02
1.941836476325988770e-01
2.299164235591888428e-01
3.329126238822937012e-01
9.905791282653808594e-02
2.775622606277465820e-01
1.562165617942810059e-01
-1.317656785249710083e-01
2.679853141307830811e-02
-4.355072975158691406e-01
-3.104943595826625824e-02
-2.918307483196258545e-02
1.784607768058776855e-02
1.055230796337127686e-01
-3.042907640337944031e-02
1.201662868261337280e-01
-3.400747431442141533e-03
-1.077014505863189697e-01
-1.010778993368148804e-01
1.273669451475143433e-01
4.344041272997856140e-02
6.258738040924072266e-02
9.682334214448928833e-02
-9.018544852733612061e-02
-6.738859415054321289e-02
-2.363640815019607544e-01
-3.062696754932403564e-01
-2.642343342304229736e-01
-1.151209175586700439e-01
2.640082240104675293e-01
3.475660383701324463e-01
5.048787593841552734e-01
2.603274583816528320e-01
2.168417870998382568e-01
7.914448529481887817e-02
-1.418233364820480347e-01
-2.387308031320571899e-01
-4.093282222747802734e-01
-5.998825281858444214e-02
7.954698055982589722e-02
3.667152523994445801e-01
2.397105097770690918e-01
9.830239415168762207e-02
-4.025768861174583435e-02
8.119446784257888794e-02
-2.148021757602691650e-01
-3.399671614170074463e-02
1.404320001602172852e-01
-3.907820675522089005e-03
-9.129106998443603516e-02
2.748188562691211700e-02
-9.605493396520614624e-02
-4.340039938688278198e-02
-2.740744054317474365e-01
-4.843781888484954834e-01
-4.781770110130310059e-01
2.199470847845077515e-01
3.561607599258422852e-01
3.986873328685760498e-01
2.902382016181945801e-01
2.364079356193542480e-01
1.799344867467880249e-01
4.598627984523773193e-02
-1.048534959554672241e-01
-3.241988718509674072e-01
-2.199516594409942627e-01
-2.010560035705566406e-01
-1.378639787435531616e-02
1.448007076978683472e-01
3.994836211204528809e-01
-7.711733877658843994e-02
-3.909801542758941650e-01
-9.958590567111968994e-02
-2.316877543926239014e-01
1.671209484338760376e-01
5.505168344825506210e-03
-7.357502728700637817e-02
-1.243946701288223267e-02
-7.147427648305892944e-02
-1.143341064453125000e-01
-2.152068167924880981e-01
-5.849136710166931152e-01
-6.844775676727294922e-01
-1.987790614366531372e-01
8.198005706071853638e-02
4.247227311134338379e-01
2.124488353729248047e-01
1.761754751205444336e-01
4.346866533160209656e-02
1.057362183928489685e-01
-7.581617683172225952e-02
5.999885126948356628e-02
2.145938947796821594e-02
-3.229207694530487061e-01
-1.526403874158859253e-01
6.293042749166488647e-02
1.002697646617889404e-01
5.702014639973640442e-02
-3.236837685108184814e-02
-2.543436884880065918e-01
1.901583559811115265e-02
1.395109891891479492e-01
4.559718444943428040e-02
2.104998081922531128e-01
1.613503992557525635e-01
6.262178719043731689e-02
-5.145140737295150757e-02
-8.580508083105087280e-02
-2.733379900455474854e-01
-4.966759383678436279e-01
-6.168032288551330566e-01
-1.503228843212127686e-01
1.891909986734390259e-01
1.299876719713211060e-01
-6.026057153940200806e-02
5.333530902862548828e-02
-1.589606702327728271e-01
-4.148253425955772400e-02
-1.961896121501922607e-01
-3.060694038867950439e-02
4.656588286161422729e-02
-1.323989927768707275e-01
-6.973663717508316040e-02
-3.118044137954711914e-02
1.232761815190315247e-01
2.349965870380401611e-01
-1.870641857385635376e-01
2.989493682980537415e-02
-8.022051304578781128e-02
2.073522210121154785e-01
8.842391520738601685e-02
2.722839117050170898e-01
3.268778696656227112e-02
5.967089906334877014e-03
-6.452006846666336060e-02
-2.598503232002258301e-01
-2.915824055671691895e-01
-2.761470377445220947e-01
-2.732326984405517578e-01
-2.531341016292572021e-01
1.555744558572769165e-01
-1.737545989453792572e-02
-1.831821352243423462e-01
-1.607226133346557617e-01
-1.134211421012878418e-01
-1.198822110891342163e-01
-2.304492443799972534e-01
-1.043085008859634399e-01
1.317003071308135986e-01
-2.777527272701263428e-02
-4.317446425557136536e-02
2.689093351364135742e-03
1.599121242761611938e-01
2.047346979379653931e-01
5.881909281015396118e-02
-4.631948098540306091e-02
1.819404363632202148e-01
1.352477222681045532e-01
2.370397150516510010e-01
1.390278935432434082e-01
8.577423542737960815e-02
-9.082759916782379150e-02
-1.656078398227691650e-01
-2.590852975845336914e-01
-3.507711291313171387e-01
-3.760826587677001953e-01
-1.749528348445892334e-01
-9.266273118555545807e-03
9.590201079845428467e-02
-1.096724942326545715e-01
-9.672550112009048462e-02
-1.769532114267349243e-01
-9.334775805473327637e-02
-3.521029949188232422e-01
-1.380285471677780151e-01
1.020834743976593018e-01
-7.424278557300567627e-02
6.080932915210723877e-02
4.622760415077209473e-02
4.154345393180847168e-02
-1.839941889047622681e-01
2.257534414529800415e-01
2.837409377098083496e-01
-1.570754200220108032e-01
9.139622002840042114e-02
9.803648106753826141e-03
1.028096750378608704e-01
9.713534265756607056e-03
4.658021777868270874e-02
-8.158626407384872437e-02
-3.185806870460510254e-01
-2.696059942245483398e-01
-1.240550205111503601e-01
-2.044635713100433350e-01
-2.183187305927276611e-01
1.656753756105899811e-02
1.767911165952682495e-01
-3.419449925422668457e-02
7.942318916320800781e-02
-1.749869808554649353e-02
-2.434153854846954346e-02
-9.048478305339813232e-02
2.927441149950027466e-02
1.598255150020122528e-02
1.172039955854415894e-01
1.700576394796371460e-01
-5.119744688272476196e-02
3.523635119199752808e-02
-5.198692530393600464e-02
-1.098429318517446518e-02
3.604901582002639771e-02
7.729616016149520874e-02
1.968920081853866577e-01
5.362615734338760376e-02
1.487065702676773071e-01
-3.889052569866180420e-02
-1.764751821756362915e-01
-1.217729598283767700e-01
-1.819805651903152466e-01
-1.657000929117202759e-01
-1.519911140203475952e-01
-1.932001560926437378e-01
8.309762179851531982e-02
-9.734110534191131592e-02
1.154839545488357544e-01
-1.976294629275798798e-02
1.429278999567031860e-01
2.093145847320556641e-01
1.874360591173171997e-01
-1.109633669257164001e-01
-1.597932726144790649e-02
-3.223882988095283508e-02
-3.081164062023162842e-01
2.313397973775863647e-01
5.910906195640563965e-02
5.935470759868621826e-02
-4.504139721393585205e-02
4.374591112136840820e-01
5.556238442659378052e-02
1.791875958442687988e-01
4.013498872518539429e-02
7.266857475042343140e-02
7.780278474092483521e-02
4.030230641365051270e-02
-1.117060631513595581e-01
-9.848283231258392334e-02
-1.072328388690948486e-01
-1.351313143968582153e-01
-1.149047985672950745e-01
-1.131545603275299072e-01
1.058094650506973267e-01
-5.778358504176139832e-02
1.413683891296386719e-01
2.013223320245742798e-01
1.284617036581039429e-01
1.249132603406906128e-01
5.744177103042602539e-02
-2.336595766246318817e-02
-9.981305152177810669e-02
-3.349288925528526306e-02
-3.308391198515892029e-02
1.825390458106994629e-01
-2.062672004103660583e-02
-5.361960455775260925e-02
4.971880465745925903e-02
1.432386487722396851e-01
-1.196817904710769653e-01
1.853657066822052002e-01
1.020387932658195496e-01
-3.577733878046274185e-03
7.728439569473266602e-02
2.461190670728683472e-01
2.677893936634063721e-01
2.329941280186176300e-02
-1.707759201526641846e-01
-2.268870919942855835e-01
-1.843307912349700928e-01
3.770187497138977051e-02
-1.052253544330596924e-01
2.728827595710754395e-01
1.814958006143569946e-01
2.346205860376358032e-01
1.337103098630905151e-01
2.111806124448776245e-01
1.291017234325408936e-01
-9.875620901584625244e-02
-5.474444851279258728e-02
1.628740504384040833e-02
-5.119596794247627258e-02
5.816808901727199554e-03
-8.039686083793640137e-02
-7.209008932113647461e-02
5.528897047042846680e-02
-3.936658799648284912e-02
-1.332315206527709961e-01
8.319138735532760620e-02
5.531939119100570679e-02
2.093853242695331573e-02
1.621103584766387939e-01
3.194024562835693359e-01
9.978998452425003052e-02
-1.823022663593292236e-01
-1.032203361392021179e-01
-1.924414932727813721e-01
-1.287237554788589478e-01
9.209134429693222046e-02
1.788428751751780510e-03
8.185268193483352661e-02
2.214347720146179199e-01
8.439435064792633057e-02
-3.432601317763328552e-02
9.136912226676940918e-02
1.396851539611816406e-01
7.611669600009918213e-02
-1.853013634681701660e-01
-2.555408477783203125e-01
-1.715535223484039307e-01
-3.180017694830894470e-02
-6.712833046913146973e-02
-2.707371488213539124e-02
1.788336038589477539e-01
-9.154223650693893433e-02
4.522762820124626160e-02
-7.862571626901626587e-02
5.365121643990278244e-03
2.067215442657470703e-01
2.040053158998489380e-01
3.434613347053527832e-01
1.383502632379531860e-01
1.480160206556320190e-01
-9.426404535770416260e-02
5.655052140355110168e-02
-1.089114025235176086e-01
-8.380492776632308960e-02
1.354677975177764893e-01
2.795404009521007538e-02
1.344770342111587524e-01
-6.157652288675308228e-02
6.727932393550872803e-02
7.069072872400283813e-02
-1.107599027454853058e-02
-1.098100766539573669e-01
8.047043532133102417e-02
-1.236832290887832642e-01
-2.701300084590911865e-01
1.570417135953903198e-01
7.339335978031158447e-03
-3.191747516393661499e-02
1.820612847805023193e-01
1.706538498401641846e-01
2.460261285305023193e-01
2.271581143140792847e-01
-3.947713598608970642e-02
1.664745509624481201e-01
1.718877106904983521e-01
1.603388488292694092e-01
2.089886814355850220e-01
1.788702458143234253e-01
8.658643066883087158e-02
-2.319391444325447083e-02
-1.386899799108505249e-01
-6.829945743083953857e-02
9.994673728942871094e-02
1.259077619761228561e-02
1.611422002315521240e-01
3.608835488557815552e-02
2.619942650198936462e-02
2.501645386219024658e-01
9.512459486722946167e-02
1.062333285808563232e-01
2.609362602233886719e-01
-5.538944900035858154e-02
-1.724441349506378174e-01
8.839792013168334961e-02
6.220646202564239502e-02
-7.345851510763168335e-02
-1.189208030700683594e-02
-5.126735195517539978e-02
-1.710090339183807373e-01
3.196841850876808167e-02
3.501698672771453857e-01
3.592653274536132812e-01
1.202519014477729797e-01
2.525631189346313477e-01
2.258288115262985229e-01
3.495135530829429626e-02
1.815752387046813965e-01
2.492845430970191956e-02
-8.305660448968410492e-03
-2.129095792770385742e-01
-7.388245314359664917e-02
-9.250181168317794800e-02
5.140495672821998596e-02
8.958793431520462036e-02
1.979995220899581909e-01
1.678849905729293823e-01
1.200859248638153076e-01
6.812765449285507202e-02
-8.466521650552749634e-02
-1.391240954399108887e-01
2.885201945900917053e-02
-3.589323023334145546e-03
-5.629606544971466064e-03
1.399901509284973145e-02
-7.196013629436492920e-02
6.959559768438339233e-02
-2.996446788311004639e-01
4.783093184232711792e-02
6.616088002920150757e-02
4.190307259559631348e-01
2.959070503711700439e-01
1.210943832993507385e-01
1.634800061583518982e-02
6.542268395423889160e-02
3.953128308057785034e-02
1.478027179837226868e-02
-6.991829723119735718e-02
-1.041164100170135498e-01
-6.997461616992950439e-02
-9.035331010818481445e-02
9.940035641193389893e-02
-3.434221819043159485e-02
5.388983059674501419e-03
-7.424070686101913452e-02
8.144106715917587280e-02
-2.994257211685180664e-01
-1.055419668555259705e-01
-2.225236147642135620e-01
-6.973958015441894531e-02
1.215080916881561279e-02
-1.675172895193099976e-02
-2.334894984960556030e-02
-1.025665551424026489e-02
-1.212916225194931030e-01
-1.998663544654846191e-01
-1.561449747532606125e-02
3.662146925926208496e-01
2.419784069061279297e-01
1.708740592002868652e-01
8.045391738414764404e-02
6.868078559637069702e-02
-1.027784422039985657e-01
-6.858248263597488403e-02
-7.432631403207778931e-02
-5.454437807202339172e-02
-1.441377252340316772e-01
-9.844816476106643677e-02
1.585887670516967773e-01
2.991077722981572151e-03
-2.992484569549560547e-01
-2.204024493694305420e-01
-2.112777829170227051e-01
-1.599057018756866455e-01
-3.696494102478027344e-01
-2.916466593742370605e-01
-2.200715430080890656e-02
-1.002289205789566040e-01
1.188424229621887207e-02
-5.668873339891433716e-02
-6.399005651473999023e-04
-2.912720665335655212e-02
7.772344350814819336e-02
9.906692802906036377e-02
9.434286504983901978e-02
1.293300688266754150e-01
-1.690518297255039215e-02
5.734545644372701645e-03
5.146504938602447510e-02
2.129287868738174438e-01
3.784242272377014160e-02
-6.032735481858253479e-02
5.609459429979324341e-02
-7.675267755985260010e-02
-5.925424396991729736e-02
1.519062966108322144e-01
1.563600078225135803e-02
1.012355685234069824e-01
-9.929880499839782715e-02
-2.305166237056255341e-02
-8.204870671033859253e-02
9.779915213584899902e-02
-1.078310310840606689e-01
-2.449706643819808960e-01
-1.189204603433609009e-01
-4.063101857900619507e-02
-1.915935426950454712e-02
-5.384591966867446899e-02
-7.458727061748504639e-02
1.028383523225784302e-02
2.630097419023513794e-02
-7.971329241991043091e-02
-2.586296200752258301e-01
-2.212033718824386597e-01
-5.806609615683555603e-02
1.256712377071380615e-01
-1.617933996021747589e-02
-4.163425415754318237e-02
-2.068070471286773682e-01
-2.743012607097625732e-01
-7.569105178117752075e-02
-1.217567827552556992e-02
7.670739293098449707e-02
-1.472551375627517700e-02
1.940354937687516212e-03
5.154546350240707397e-02
-6.196684762835502625e-02
2.103095799684524536e-01
1.986200176179409027e-02
2.350100316107273102e-02
4.789501894265413284e-03
-8.012229204177856445e-02
-2.676757052540779114e-02
-4.539350047707557678e-02
-8.092395961284637451e-03
-7.083361595869064331e-02
-1.310398429632186890e-02
-8.098048716783523560e-02
5.186899006366729736e-02
3.684628754854202271e-02
-1.339895278215408325e-02
2.888335287570953369e-01
1.808086186647415161e-01
6.660692393779754639e-02
8.302637189626693726e-02
2.403004467487335205e-01
2.569738328456878662e-01
4.985220357775688171e-02
-2.606037631630897522e-02
5.120784044265747070e-01
3.373552560806274414e-01
1.501094549894332886e-03
2.140706181526184082e-01
2.752354741096496582e-01
2.075183093547821045e-01
-8.890841901302337646e-02
1.328912973403930664e-01
2.356207370758056641e-01
-1.343949139118194580e-01
-5.738345533609390259e-02
-4.639193043112754822e-02
-6.081382557749748230e-02
-7.791785895824432373e-02
-5.266658589243888855e-02
-6.775215268135070801e-03
-4.440352320671081543e-03
-4.430153220891952515e-02
5.960343778133392334e-02
-1.397357881069183350e-02
-7.111997902393341064e-02
1.591293513774871826e-02
4.527938365936279297e-02
-1.400524377822875977e-02
6.193670630455017090e-02
-1.712925732135772705e-02
-7.604334503412246704e-02
-2.501688525080680847e-02
2.321275509893894196e-02
2.047624439001083374e-02
7.888495922088623047e-03
5.442887544631958008e-02
2.934690564870834351e-02
1.452988386154174805e-02
1.988387107849121094e-02
2.385978400707244873e-02
-5.605672672390937805e-02
-7.742650806903839111e-02
1.429989933967590332e-03
2.698371559381484985e-02
-1.721251755952835083e-02
7.162559032440185547e-02
-3.374278172850608826e-02
-1.846930384635925293e-02
7.134371995925903320e-02
5.727338790893554688e-02
6.973297894001007080e-02
2.415297925472259521e-02
7.162228226661682129e-03
-2.471689134836196899e-03
1.803046613931655884e-01
2.005165368318557739e-01
2.258711457252502441e-01
2.744851708412170410e-01
3.326212465763092041e-01
2.513244189321994781e-02
3.325563967227935791e-01
-1.126878708600997925e-01
3.075895607471466064e-01
3.406518697738647461e-02
3.833203017711639404e-01
3.734851777553558350e-01
3.162863254547119141e-01
2.616123259067535400e-01
2.503644227981567383e-01
7.472159713506698608e-02
-1.378404721617698669e-02
-2.076315507292747498e-02
-5.526347830891609192e-02
4.006096720695495605e-02
3.362453728914260864e-02
2.429676055908203125e-02
3.748510777950286865e-02
6.317132711410522461e-02
1.713392883539199829e-02
3.294594213366508484e-02
2.834662795066833496e-02
1.218812987208366394e-01
2.971044778823852539e-01
3.220652341842651367e-01
3.466549217700958252e-01
2.272035926580429077e-01
5.120204091072082520e-01
2.052587419748306274e-01
2.049742937088012695e-01
4.506395757198333740e-01
2.949928045272827148e-01
4.172895848751068115e-01
3.713280856609344482e-01
7.809486240148544312e-02
1.972172111272811890e-01
2.567504346370697021e-01
1.568260490894317627e-01
3.720356225967407227e-01
2.029126286506652832e-01
2.341897040605545044e-01
-9.709222242236137390e-03
4.204931855201721191e-02
3.973458707332611084e-02
6.274282932281494141e-04
-5.208949744701385498e-02
-3.464971110224723816e-02
-2.371115237474441528e-02
-7.655712962150573730e-02
-1.997757405042648315e-01
4.836185574531555176e-01
3.625819385051727295e-01
1.057147905230522156e-01
3.586581349372863770e-01
2.163994610309600830e-01
9.251087158918380737e-02
-9.187033772468566895e-02
6.973837316036224365e-02
6.300038192421197891e-03
1.906493157148361206e-01
1.207050904631614685e-01
2.030755579471588135e-02
1.252035945653915405e-01
4.231886565685272217e-02
-4.493740573525428772e-02
5.116419494152069092e-02
2.771662771701812744e-01
2.274881005287170410e-01
2.172318249940872192e-01
-2.668818235397338867e-01
4.306852817535400391e-02
8.151128888130187988e-03
-6.321930885314941406e-02
2.204360812902450562e-02
-1.259815990924835205e-01
-6.971850991249084473e-03
7.324688136577606201e-02
1.561605185270309448e-01
3.599393665790557861e-01
3.247258663177490234e-01
3.471260964870452881e-01
1.330581754446029663e-01
2.483752667903900146e-01
7.464926689863204956e-02
1.129214614629745483e-01
3.360918760299682617e-01
2.348261624574661255e-01
7.871705293655395508e-02
1.128192171454429626e-01
3.066562674939632416e-02
8.274285495281219482e-02
1.739302724599838257e-01
1.030171439051628113e-01
3.007232584059238434e-02
-9.969061240553855896e-03
-6.271377950906753540e-02
-9.396410733461380005e-02
-1.151292398571968079e-01
-1.688273251056671143e-01
4.844054579734802246e-03
-5.849361419677734375e-02
-2.481879293918609619e-02
1.762922853231430054e-02
7.126291096210479736e-02
3.760397434234619141e-01
9.642433375120162964e-02
1.480223424732685089e-02
1.587357670068740845e-01
1.455592811107635498e-01
-1.442966759204864502e-01
1.402576267719268799e-01
-9.394422918558120728e-02
4.417509585618972778e-02
-8.286687079817056656e-04
1.951069384813308716e-01
-1.612888276576995850e-02
9.959794580936431885e-02
3.989547491073608398e-02
7.763434946537017822e-02
1.581202149391174316e-01
1.948126554489135742e-01
1.673827171325683594e-01
1.742436736822128296e-01
1.135157188400626183e-03
1.365974843502044678e-01
6.259687989950180054e-02
-4.444209113717079163e-02
-6.963241845369338989e-02
-1.199860125780105591e-02
-6.206762790679931641e-02
-4.389294981956481934e-02
5.137405544519424438e-02
-9.006749838590621948e-02
7.182230800390243530e-02
-3.541314229369163513e-02
-5.848635733127593994e-02
-2.588654682040214539e-02
1.230844408273696899e-01
4.338669776916503906e-02
-2.681679464876651764e-02
-4.742294922471046448e-02
-1.129543501883745193e-02
1.462739985436201096e-02
-1.850946247577667236e-02
-8.694612234830856323e-02
-1.056742817163467407e-01
-1.298503279685974121e-01
-7.175910472869873047e-02
2.280027605593204498e-02
-1.432303190231323242e-01
2.650562673807144165e-02
-5.938811972737312317e-02
-6.771723181009292603e-02
1.538203097879886627e-02
-7.328981906175613403e-02
1.739452481269836426e-01
1.998677849769592285e-02
1.589524149894714355e-01
4.114731773734092712e-02
-1.361617147922515869e-01
1.716076433658599854e-01
-2.568013034760951996e-02
-3.610279038548469543e-02
-7.794913649559020996e-02
6.107731908559799194e-02
8.232113718986511230e-02
2.294114790856838226e-02
-4.487494006752967834e-02
-2.407342568039894104e-02
-9.896849095821380615e-02
2.156233228743076324e-02
-4.794881492853164673e-02
-1.532333940267562866e-01
-2.464650124311447144e-01
-1.229930818080902100e-01
-1.672110855579376221e-01
8.524147421121597290e-02
-2.723300829529762268e-02
8.212278038263320923e-02
-1.799745559692382812e-01
-1.832177639007568359e-01
1.566374450922012329e-01
-7.732830476015806198e-03
-1.109299063682556152e-01
-1.396395359188318253e-02
1.287283375859260559e-03
1.160647571086883545e-01
1.235301420092582703e-01
3.809044063091278076e-01
-4.634623229503631592e-02
-7.650054246187210083e-02
8.960141986608505249e-02
-1.582621224224567413e-02
-6.171031668782234192e-02
-1.203106939792633057e-01
-1.368126869201660156e-01
-1.263851374387741089e-01
-1.355049386620521545e-02
-9.290500730276107788e-02
-7.972738146781921387e-02
-9.336051344871520996e-02
-1.758418381214141846e-01
-2.403553426265716553e-01
-4.604911431670188904e-02
-1.169400513172149658e-01
3.136828914284706116e-02
-6.657944619655609131e-02
-4.695096984505653381e-02
-3.720341324806213379e-01
-1.879914999008178711e-01
-9.973988868296146393e-03
-8.528896421194076538e-02
-1.442236453294754028e-01
-6.348523311316967010e-03
-1.220926046371459961e-01
5.377938970923423767e-02
-4.441676195710897446e-03
6.348127126693725586e-02
-2.208811789751052856e-02
3.190687298774719238e-02
1.162807922810316086e-02
-7.208915799856185913e-02
-2.585095167160034180e-01
-9.410768747329711914e-02
-5.317436298355460167e-04
-3.276320174336433411e-03
-3.054131194949150085e-02
7.231917977333068848e-02
-2.367722615599632263e-02
5.878840107470750809e-03
-1.153901070356369019e-01
3.405970335006713867e-02
1.532913744449615479e-01
-7.191414386034011841e-02
-5.298959091305732727e-02
-9.897695481777191162e-02
-3.815445005893707275e-01
-1.488632857799530029e-01
-1.956551373004913330e-01
-1.579960286617279053e-01
-1.279041022062301636e-01
1.040486339479684830e-02
-7.683902233839035034e-02
1.916974782943725586e-01
-2.954510599374771118e-02
6.386557966470718384e-02
-8.259842544794082642e-02
2.961591444909572601e-02
-1.071502640843391418e-01
-7.547536492347717285e-02
-2.280469536781311035e-01
-1.018962189555168152e-01
5.440071970224380493e-02
1.645681858062744141e-01
1.000995635986328125e-01
-3.913633152842521667e-02
-4.430009052157402039e-02
-1.530972719192504883e-01
9.431128203868865967e-02
1.123439967632293701e-01
-8.775587379932403564e-02
-1.035351864993572235e-02
-2.974531054496765137e-01
-1.029745787382125854e-01
-5.804150924086570740e-02
-3.120988607406616211e-01
-4.956961795687675476e-02
1.803754083812236786e-02
-2.076230198144912720e-02
-7.543926686048507690e-02
-1.815627962350845337e-01
1.766515821218490601e-01
1.241772919893264771e-01
9.329877793788909912e-02
1.278514415025711060e-01
-1.612956076860427856e-02
-2.012294083833694458e-01
2.260980755090713501e-02
-1.760015785694122314e-01
1.075552124530076981e-02
1.261507421731948853e-01
1.561046838760375977e-01
1.810258775949478149e-01
-1.407802011817693710e-02
1.571997255086898804e-01
-1.237532272934913635e-01
5.227728933095932007e-02
1.546704024076461792e-01
1.145840287208557129e-01
-2.818400412797927856e-02
-1.479531526565551758e-01
-2.068617381155490875e-02
7.146523892879486084e-02
1.665817946195602417e-01
-2.375211939215660095e-02
5.599277839064598083e-02
-8.545941859483718872e-02
-1.216934621334075928e-01
-5.329834297299385071e-03
5.938643589615821838e-02
3.155535086989402771e-02
1.256399005651473999e-01
-6.034446880221366882e-02
1.122287660837173462e-01
-3.081013076007366180e-02
-1.293316185474395752e-01
-1.643827743828296661e-02
-2.186768688261508942e-02
1.922242902219295502e-02
1.388420760631561279e-01
8.849151432514190674e-02
-9.455389529466629028e-02
1.117382273077964783e-01
7.924552261829376221e-02
-2.251875400543212891e-01
-9.156616777181625366e-02
4.854575917124748230e-02
7.312776148319244385e-02
-5.767855420708656311e-02
2.476385980844497681e-02
2.292513698339462280e-01
-6.554694473743438721e-02
-3.465714156627655029e-01
1.153192818164825439e-01
-7.486849278211593628e-02
5.485840141773223877e-02
-3.539457619190216064e-01
-7.015717681497335434e-03
-2.495546936988830566e-01
-1.369155347347259521e-01
6.024037301540374756e-02
-2.638296782970428467e-01
9.885657578706741333e-03
-4.334898665547370911e-03
-5.303534120321273804e-02
4.188694804906845093e-02
2.223650217056274414e-01
8.312097936868667603e-02
1.349370777606964111e-01
9.163317829370498657e-02
7.058502733707427979e-02
1.190693676471710205e-02
-3.864035010337829590e-02
-6.740777753293514252e-03
-8.652798086404800415e-02
-5.529673025012016296e-02
8.698101155459880829e-03
4.284458234906196594e-02
-2.757033705711364746e-02
3.502214327454566956e-02
5.248389840126037598e-01
2.555089592933654785e-01
-6.680248677730560303e-02
-7.678663730621337891e-02
-7.975657284259796143e-02
-1.311801373958587646e-01
5.943958833813667297e-02
2.036493569612503052e-01
2.777905575931072235e-02
-1.284254938364028931e-01
-9.055855870246887207e-02
-2.967139706015586853e-02
-5.182030424475669861e-02
1.041273921728134155e-01
2.817387506365776062e-02
8.397613652050495148e-03
1.388995796442031860e-01
1.429689228534698486e-01
3.639401793479919434e-01
-8.174210786819458008e-02
-1.942849904298782349e-02
4.472091421484947205e-02
3.218745812773704529e-02
-1.572205871343612671e-02
-1.868166401982307434e-02
-1.370934098958969116e-01
-1.145792230963706970e-01
2.601259648799896240e-01
2.137151546776294708e-02
4.285708069801330566e-02
4.984451830387115479e-02
-1.754373908042907715e-01
-1.522646695375442505e-01
1.646624356508255005e-01
-7.187586277723312378e-03
-1.097422745078802109e-02
-3.649997338652610779e-02
-5.190646275877952576e-02
1.121780276298522949e-01
-3.302707150578498840e-02
-2.095071971416473389e-02
8.172395825386047363e-02
5.506087467074394226e-02
1.646436452865600586e-01
2.891319692134857178e-01
1.506824642419815063e-01
2.326090782880783081e-01
-6.380175054073333740e-02
-1.582305729389190674e-01
1.261809170246124268e-01
-1.939642578363418579e-01
4.866344109177589417e-02
1.109356153756380081e-02
-2.922818064689636230e-01
-1.830200850963592529e-01
4.242475926876068115e-01
3.819333016872406006e-01
9.299756586551666260e-02
-6.752683222293853760e-02
-6.668520718812942505e-02
1.207874864339828491e-01
5.339948087930679321e-02
4.799372702836990356e-02
6.311878561973571777e-02
1.819837093353271484e-01
1.143702566623687744e-01
1.545998267829418182e-02
1.957547217607498169e-01
1.695816516876220703e-01
1.522746235132217407e-01
-3.380148438736796379e-03
4.149897396564483643e-02
2.154870182275772095e-01
9.848939627408981323e-02
-2.647548727691173553e-02
-1.100171506404876709e-01
-6.864108610898256302e-03
-1.449663098901510239e-02
-1.327393203973770142e-01
-8.171373605728149414e-02
-3.126397356390953064e-02
4.137419909238815308e-02
1.595975607633590698e-01
4.775902926921844482e-01
3.418978750705718994e-01
3.205173090100288391e-02
4.425685107707977295e-02
4.779835045337677002e-02
3.317036330699920654e-01
6.771024316549301147e-02
6.974381208419799805e-02
1.385022979229688644e-02
-6.581095606088638306e-02
9.957259893417358398e-02
1.479237377643585205e-01
-4.754386097192764282e-02
1.449885196052491665e-03
-1.122934594750404358e-01
-9.809769690036773682e-02
-1.985444501042366028e-02
8.119572699069976807e-02
-9.221808612346649170e-02
1.471780333667993546e-02
1.435301546007394791e-02
1.253266930580139160e-01
4.123767465353012085e-02
-7.892024517059326172e-02
6.225761398673057556e-02
-5.443181097507476807e-02
2.015803903341293335e-01
1.559201255440711975e-02
2.052991837263107300e-01
2.828471958637237549e-01
3.792749345302581787e-02
6.573656201362609863e-02
-4.441567510366439819e-02
1.372991204261779785e-01
2.989204227924346924e-01
1.311536431312561035e-01
1.620752662420272827e-01
5.553200840950012207e-02
3.609616309404373169e-02
-2.210369706153869629e-02
1.039073765277862549e-01
1.074785925447940826e-02
-8.819861710071563721e-02
-6.403991580009460449e-02
1.323964744806289673e-01
1.710476428270339966e-01
-1.492594741284847260e-02
-8.047764748334884644e-02
6.714732199907302856e-02
7.007803022861480713e-02
-2.554972097277641296e-02
9.445594251155853271e-02
-1.115027070045471191e-01
-1.486576944589614868e-01
8.553374558687210083e-02
2.366015920415520668e-03
3.867792785167694092e-01
1.835871487855911255e-01
1.930866092443466187e-01
-3.300237283110618591e-02
5.260779056698083878e-03
-5.834245309233665466e-02
-1.741424389183521271e-02
1.226228848099708557e-01
1.166110858321189880e-01
-1.812812872231006622e-02
8.916806429624557495e-02
2.393506094813346863e-02
1.523210853338241577e-01
1.369243115186691284e-01
1.531215608119964600e-01
-1.848070472478866577e-01
2.007244080305099487e-01
-1.468745432794094086e-02
-7.744149118661880493e-02
4.468293488025665283e-02
1.745096743106842041e-01
1.584042608737945557e-01
1.369629055261611938e-01
-5.383782088756561279e-02
1.484135240316390991e-01
1.669147014617919922e-01
2.058386951684951782e-01
-1.722260750830173492e-02
7.599217444658279419e-02
3.520987927913665771e-01
-5.451463907957077026e-02
-4.705847054719924927e-02
-2.381930500268936157e-01
-7.391782943159341812e-03
2.770854830741882324e-01
1.130514219403266907e-01
1.276764571666717529e-01
4.194828495383262634e-02
1.988239288330078125e-01
3.898390009999275208e-02
6.548426300287246704e-02
9.981662034988403320e-02
-6.563479080796241760e-03
-2.560023218393325806e-02
-1.989278793334960938e-01
-1.367264334112405777e-02
1.683991402387619019e-01
7.586968690156936646e-02
6.175378337502479553e-02
2.102882862091064453e-01
1.951329857110977173e-01
1.180178150534629822e-01
1.398779600858688354e-01
2.154080867767333984e-01
1.267650872468948364e-01
1.870035529136657715e-01
1.206161361187696457e-02
1.932579278945922852e-01
-2.391008660197257996e-02
7.838642597198486328e-02
1.896697580814361572e-01
2.253097891807556152e-01
2.277229726314544678e-01
1.413595080375671387e-01
-6.982182711362838745e-02
8.225283026695251465e-02
7.397889345884323120e-02
1.011023744940757751e-01
7.967105507850646973e-02
-6.507577747106552124e-02
1.299069523811340332e-01
2.721416391432285309e-02
-8.774526417255401611e-03
5.580018833279609680e-02
2.024328522384166718e-02
-1.973660476505756378e-02
1.623118370771408081e-01
8.893354982137680054e-02
2.997331917285919189e-01
2.314133793115615845e-01
1.595310121774673462e-01
3.321996331214904785e-01
3.564952909946441650e-01
2.427009642124176025e-01
-1.683337539434432983e-01
6.396599113941192627e-02
-7.530458271503448486e-02
1.431922614574432373e-02
6.279408931732177734e-03
6.391614675521850586e-02
-3.788996115326881409e-02
1.059354394674301147e-01
5.595700070261955261e-02
5.073779821395874023e-02
-8.329785615205764771e-02
1.451040245592594147e-02
-8.911137282848358154e-02
6.425712257623672485e-02
1.487873941659927368e-01
7.809435576200485229e-02
2.737657725811004639e-02
-9.727823734283447266e-02
-2.657855488359928131e-02
-6.198227405548095703e-02
4.214737564325332642e-02
1.830796301364898682e-01
1.274714246392250061e-02
1.992989927530288696e-01
1.924516111612319946e-01
7.146508991718292236e-02
1.565958857536315918e-01
2.178706228733062744e-02
-9.496871381998062134e-02
-1.250417232513427734e-01
-7.661992311477661133e-02
-7.382961362600326538e-02
6.788972020149230957e-02
-1.465037837624549866e-02
2.208722941577434540e-02
3.530040010809898376e-02
-4.672589898109436035e-02
-1.645527780055999756e-01
-6.326664239168167114e-02
8.480460941791534424e-02
4.433911293745040894e-02
-2.286820411682128906e-01
-1.023567374795675278e-02
9.340707957744598389e-02
2.473410777747631073e-02
-8.908399939537048340e-02
3.961927816271781921e-02
-1.914098411798477173e-01
-1.852285861968994141e-01
1.227583214640617371e-01
2.938551008701324463e-01
4.584164023399353027e-01
4.237509071826934814e-01
1.630721688270568848e-01
9.512700885534286499e-02
-1.505415290594100952e-01
-6.881755590438842773e-02
-1.818338483572006226e-01
1.148477196693420410e-03
-3.464932739734649658e-02
-6.086405366659164429e-02
6.387936323881149292e-02
-1.319099962711334229e-01
-8.479239046573638916e-02
-2.485056817531585693e-01
-1.039794087409973145e-01
-1.169612258672714233e-01
-1.744344830513000488e-01
5.736255645751953125e-02
-1.030268594622612000e-01
4.806695505976676941e-02
-1.787931919097900391e-01
-2.358825802803039551e-01
-1.772238165140151978e-01
3.255286067724227905e-02
2.093828171491622925e-01
-3.290171623229980469e-01
-4.179370030760765076e-02
-1.086798533797264099e-01
-3.331444784998893738e-02
-5.679488927125930786e-02
3.990004211664199829e-02
-2.686166465282440186e-01
-2.895152196288108826e-02
7.005187869071960449e-02
2.526734024286270142e-02
7.147322595119476318e-02
-4.272725060582160950e-02
3.088956326246261597e-02
-3.822410479187965393e-02
-1.586622297763824463e-01
7.552169729024171829e-03
-4.657442271709442139e-01
-3.813885748386383057e-01
-4.017072021961212158e-01
-1.619685888290405273e-01
-1.288294345140457153e-01
-1.600895076990127563e-01
-2.659817636013031006e-01
-1.521512418985366821e-01
4.016680270433425903e-02
5.186822265386581421e-02
6.411852687597274780e-02
-1.917098164558410645e-01
-2.565898746252059937e-02
-2.130594700574874878e-01
-3.517235815525054932e-01
-1.263349950313568115e-01
-4.300145208835601807e-01
-2.600601017475128174e-01
-2.846896052360534668e-01
-1.704460233449935913e-01
7.487562298774719238e-02
7.284063100814819336e-02
4.623921215534210205e-02
-7.517353445291519165e-02
6.239987909793853760e-03
6.864169239997863770e-02
4.396635293960571289e-02
-2.170684188604354858e-01
-1.046568080782890320e-01
-2.163131982088088989e-01
-2.862887978553771973e-01
-1.148963496088981628e-01
-3.133053779602050781e-01
-4.377176165580749512e-01
-3.162309527397155762e-01
-1.937319934368133545e-01
-2.966684997081756592e-01
-3.720442056655883789e-01
-3.011452257633209229e-01
-1.610298454761505127e-01
-1.321425139904022217e-01
-2.259456068277359009e-01
-3.237414360046386719e-01
-3.462270796298980713e-01
-1.328331381082534790e-01
-1.449440717697143555e-01
-7.292151451110839844e-02
4.847866296768188477e-02
-3.431792557239532471e-02
4.223018884658813477e-02
1.567406207323074341e-02
6.870716810226440430e-02
-2.309725433588027954e-02
2.937346696853637695e-03
-4.512359574437141418e-02
2.443307638168334961e-02
-1.183154731988906860e-01
-6.807478517293930054e-02
-1.466915756464004517e-01
-1.411704570055007935e-01
1.209871172904968262e-01
-2.062318474054336548e-01
1.005691196769475937e-02
3.647960955277085304e-03
2.327001094818115234e-02
-1.517355293035507202e-01
-1.737796515226364136e-01
6.754039786756038666e-03
-2.204444110393524170e-01
-1.213656663894653320e-01
6.779490411281585693e-02
-1.067132651805877686e-01
-1.732822507619857788e-01
1.000097617506980896e-01
6.721881031990051270e-02
8.738331496715545654e-03
5.316931009292602539e-02
-2.772534266114234924e-02
-7.762905955314636230e-02
3.996880352497100830e-02
-5.614556372165679932e-03
-4.131252318620681763e-02
3.090849518775939941e-02
1.564886420965194702e-02
3.687579184770584106e-02
5.214093625545501709e-02
-2.624213695526123047e-03
-1.601733267307281494e-02
5.625545978546142578e-02
-1.911786943674087524e-02
-5.040779337286949158e-02
4.859504103660583496e-02
-4.664577543735504150e-02
2.339976280927658081e-02
-1.256951689720153809e-02
7.783369719982147217e-02
-8.154816925525665283e-02
2.923140674829483032e-02
-5.764253437519073486e-03
-3.150383010506629944e-02
-6.306637078523635864e-02
-1.541335135698318481e-02
8.019058406352996826e-02
-4.185547307133674622e-02
4.094246774911880493e-02
7.490934431552886963e-02
3.820595890283584595e-02
-1.041567325592041016e-02
-4.311070591211318970e-02
7.797041535377502441e-02
-4.390216991305351257e-02
-4.923444986343383789e-02
5.151182413101196289e-03
-8.773548901081085205e-02
-6.597760319709777832e-02
-6.239040940999984741e-02
-1.796169579029083252e-01
-2.820816636085510254e-01
6.710607558488845825e-02
-1.479326039552688599e-01
-3.920692503452301025e-01
7.617837935686111450e-02
-3.093067407608032227e-01
-8.063816279172897339e-02
-3.070473968982696533e-01
-2.358905822038650513e-01
-2.232916951179504395e-01
-1.996897608041763306e-01
-1.773238033056259155e-01
-2.003461420536041260e-01
-1.310514062643051147e-01
-3.222458064556121826e-02
6.793580949306488037e-03
-2.974579855799674988e-02
7.589100301265716553e-02
-1.607716083526611328e-02
-1.656442880630493164e-03
3.833801299333572388e-02
2.847669273614883423e-02
-1.823229715228080750e-02
-1.348321139812469482e-02
-2.718781530857086182e-01
-2.613665163516998291e-01
-1.883401125669479370e-01
-2.944500744342803955e-01
-5.624574795365333557e-02
-2.182861268520355225e-01
1.811851747334003448e-02
-8.760056644678115845e-02
-3.420187160372734070e-02
-1.955273188650608063e-02
-3.769858479499816895e-01
-3.141906261444091797e-01
1.590072736144065857e-02
-2.198589146137237549e-01
-1.207184493541717529e-01
-2.070761844515800476e-02
-2.261383831501007080e-01
-1.802564710378646851e-01
-1.289731264114379883e-01
1.156279891729354858e-01
3.449551016092300415e-02
7.813261449337005615e-02
7.876411080360412598e-03
5.650600790977478027e-02
-3.340355679392814636e-02
-4.211647808551788330e-02
9.037367999553680420e-03
2.241536378860473633e-01
-1.791946291923522949e-01
-2.563721239566802979e-01
-1.741226464509963989e-01
-7.798773795366287231e-02
-2.059659957885742188e-01
-1.340580135583877563e-01
-1.307287961244583130e-01
-1.996336579322814941e-01
-6.745339184999465942e-02
-2.333522439002990723e-01
-1.208770573139190674e-01
-2.192936539649963379e-01
-3.168141841888427734e-01
-2.817047834396362305e-01
-3.197806775569915771e-01
-3.533241152763366699e-01
-3.965936005115509033e-01
-1.644806116819381714e-01
-2.210078835487365723e-01
1.989421993494033813e-02
-2.152570337057113647e-02
-7.554508745670318604e-02
-6.843984127044677734e-02
7.377821207046508789e-02
4.494524002075195312e-02
-2.554237097501754761e-02
-1.210470646619796753e-01
-2.147909998893737793e-01
1.742493361234664917e-02
4.817385971546173096e-02
-4.274768382310867310e-02
2.653660625219345093e-02
1.372674405574798584e-01
-9.270641207695007324e-02
-5.667713657021522522e-02
-3.351031541824340820e-01
-1.155545786023139954e-01
-3.432534635066986084e-02
-3.605020046234130859e-02
1.202846318483352661e-01
-4.271195828914642334e-02
-1.906878650188446045e-01
-6.088965758681297302e-02
-1.118358876556158066e-02
1.293533891439437866e-01
-7.740053534507751465e-02
-3.441002219915390015e-02
6.803094595670700073e-02
-1.328117251396179199e-01
-2.183214202523231506e-02
3.290048986673355103e-02
-4.063907265663146973e-02
7.742126286029815674e-02
1.229353547096252441e-01
5.549125373363494873e-02
-1.315296739339828491e-01
-9.629570413380861282e-04
-6.092457100749015808e-02
1.867625713348388672e-01
-1.235644984990358353e-02
-1.085882484912872314e-01
-9.582282602787017822e-02
-1.866163164377212524e-01
-5.850670114159584045e-02
-1.114603318274021149e-02
-6.073246896266937256e-02
1.563509739935398102e-02
1.081195101141929626e-01
1.679457724094390869e-01
-3.251023963093757629e-02
-8.371736109256744385e-02
6.886129826307296753e-02
5.774370208382606506e-02
-1.932637095451354980e-01
1.110630258917808533e-01
2.778052538633346558e-02
-3.056499734520912170e-02
-7.064016163349151611e-02
-1.815109699964523315e-02
-5.494784563779830933e-02
-6.400086730718612671e-02
2.606182992458343506e-01
1.976469755172729492e-01
6.343053281307220459e-02
6.872603297233581543e-02
-1.006033122539520264e-01
6.787457317113876343e-02
-1.793158501386642456e-01
-2.366039901971817017e-01
-3.162969276309013367e-02
-3.787068277597427368e-02
-2.418788373470306396e-01
4.628190770745277405e-03
-9.983419626951217651e-02
-6.651201844215393066e-02
1.032131314277648926e-01
9.689831733703613281e-02
-2.786054648458957672e-02
-2.730576321482658386e-02
3.443554043769836426e-02
2.038830518722534180e-02
-1.012106388807296753e-01
-3.714570701122283936e-01
-2.185494154691696167e-01
-1.294852495193481445e-01
6.772470474243164062e-02
5.588485300540924072e-02
-2.991499751806259155e-02
1.121535226702690125e-01
2.073629200458526611e-01
5.836170911788940430e-02
-1.714636981487274170e-01
2.856445014476776123e-01
-1.595638543367385864e-01
-3.683448433876037598e-01
-1.394323259592056274e-01
-1.058810725808143616e-01
-1.354413852095603943e-02
-1.523665636777877808e-01
-6.321074068546295166e-02
-1.811147630214691162e-01
1.913761720061302185e-02
1.643215417861938477e-01
1.062437221407890320e-01
1.121732667088508606e-01
2.233053743839263916e-02
5.398353561758995056e-02
1.914867162704467773e-01
2.065923959016799927e-01
-1.430741231888532639e-02
-6.274219602346420288e-02
2.181844562292098999e-01
-3.100490868091583252e-01
5.952030047774314880e-02
-3.669812530279159546e-02
6.141697242856025696e-02
1.267341822385787964e-01
-3.767154365777969360e-02
2.478972636163234711e-02
-5.557246133685112000e-02
2.064734846353530884e-01
-3.374038636684417725e-01
-6.039699167013168335e-02
1.705600768327713013e-01
9.415961056947708130e-02
-1.843973249197006226e-01
-6.014396995306015015e-02
-1.535141915082931519e-01
-7.129905372858047485e-02
2.202460765838623047e-01
8.346532285213470459e-02
1.583303958177566528e-01
1.355700045824050903e-01
-4.812579602003097534e-02
-1.543442066758871078e-02
-1.023562848567962646e-01
8.415427803993225098e-02
1.590853482484817505e-01
1.728960275650024414e-01
8.727560937404632568e-02
-8.001819252967834473e-02
-3.506053611636161804e-02
-7.115978002548217773e-02
-1.469345986843109131e-01
3.005892336368560791e-01
9.330064803361892700e-02
-1.390275359153747559e-01
1.235339604318141937e-02
5.901350826025009155e-02
-3.180543780326843262e-01
-1.397323012351989746e-01
-3.970153629779815674e-02
3.089578263461589813e-02
-1.669788062572479248e-01
-1.166598945856094360e-01
1.056944131851196289e-01
-8.724341541528701782e-02
2.888847840949892998e-03
1.747071743011474609e-01
2.408580332994461060e-01
1.594569087028503418e-01
9.140631556510925293e-02
1.898352205753326416e-01
-2.890276024118065834e-03
-2.360585927963256836e-01
7.885508239269256592e-02
6.280644983053207397e-02
-2.101136893033981323e-01
-1.971697062253952026e-01
4.503481462597846985e-02
2.762277983129024506e-02
6.329238414764404297e-02
3.441379964351654053e-01
-1.553267538547515869e-01
-2.146770358085632324e-01
5.433951504528522491e-03
6.207891181111335754e-02
-1.858689039945602417e-01
-1.033260449767112732e-01
-6.301219016313552856e-02
-5.769246816635131836e-02
-6.702125817537307739e-02
-5.223055556416511536e-02
-6.870701164007186890e-02
-4.582798480987548828e-02
-2.259266376495361328e-01
-9.992931783199310303e-02
2.212204337120056152e-01
-3.077688440680503845e-02
9.406393766403198242e-02
1.269229948520660400e-01
-5.115525051951408386e-02
1.618560999631881714e-01
-1.205672249197959900e-01
-2.703911252319812775e-02
2.571558579802513123e-02
-1.743282824754714966e-01
-6.271775811910629272e-02
-7.035625167191028595e-03
-5.973474681377410889e-02
-1.634027659893035889e-01
-1.643907129764556885e-01
-3.870003521442413330e-01
-2.897465825080871582e-01
1.068942993879318237e-01
-6.969013810157775879e-02
1.684276387095451355e-02
-5.623764544725418091e-02
-1.930531710386276245e-01
9.620448201894760132e-02
1.876940727233886719e-01
5.297877639532089233e-02
-1.454438865184783936e-01
-1.984683722257614136e-01
-3.297702968120574951e-01
-3.588375821709632874e-02
1.495708432048559189e-02
1.781944185495376587e-01
1.700159907341003418e-01
-1.231848075985908508e-02
-4.946033284068107605e-02
-2.621744871139526367e-01
-1.257927268743515015e-01
9.320379793643951416e-02
-3.130286335945129395e-01
-1.526711136102676392e-01
5.307606980204582214e-02
1.037193275988101959e-02
-2.047825977206230164e-02
-2.132609635591506958e-01
-1.210148856043815613e-01
-1.589711457490921021e-01
2.703855186700820923e-02
-2.401132434606552124e-01
7.905926555395126343e-02
5.879073590040206909e-02
1.592630147933959961e-02
4.834674298763275146e-02
2.221057564020156860e-01
3.845265135169029236e-02
-5.707272142171859741e-02
-3.302496373653411865e-01
-3.683791160583496094e-01
-1.907179355621337891e-01
-1.149503514170646667e-02
2.252414971590042114e-01
2.657270431518554688e-02
1.453375965356826782e-01
-9.923204779624938965e-04
-4.674850404262542725e-02
-2.612238228321075439e-01
-2.299610525369644165e-01
-9.345740079879760742e-02
-1.588466316461563110e-01
-5.418840050697326660e-02
-8.861367590725421906e-03
-1.272296607494354248e-01
-6.275279819965362549e-02
5.897070094943046570e-02
3.361604362726211548e-02
1.540656536817550659e-01
4.287241399288177490e-02
1.862747371196746826e-01
1.060334071516990662e-01
1.192523315548896790e-01
1.793569177389144897e-01
1.570670455694198608e-01
-1.032171100378036499e-01
-2.941321730613708496e-01
-2.497074156999588013e-01
-2.962340414524078369e-01
7.350665330886840820e-02
1.490438878536224365e-01
1.332555618137121201e-02
1.094063222408294678e-01
-3.526948764920234680e-02
2.167177051305770874e-01
-6.116504594683647156e-02
-1.642133593559265137e-01
1.135688871145248413e-01
2.049351930618286133e-01
2.745925188064575195e-01
7.512129843235015869e-02
-6.609016656875610352e-02
-2.303354889154434204e-01
4.616849869489669800e-02
4.906551539897918701e-02
-8.089700341224670410e-02
-4.516242817044258118e-02
2.120694667100906372e-01
2.508854866027832031e-01
1.175236031413078308e-01
-6.013495847582817078e-02
1.306710392236709595e-01
1.186526939272880554e-02
-1.378897875547409058e-01
-8.368559926748275757e-02
-1.867378205060958862e-01
-5.717177316546440125e-02
1.790713965892791748e-01
3.273714184761047363e-01
3.679334223270416260e-01
8.223798125982284546e-02
8.916400372982025146e-03
1.219741851091384888e-01
9.428165107965469360e-02
-6.699843704700469971e-02
1.933788061141967773e-01
2.821576297283172607e-01
6.034125387668609619e-02
5.120189487934112549e-02
-7.060825079679489136e-02
-3.260655105113983154e-01
3.970316648483276367e-01
1.269146949052810669e-01
2.239657193422317505e-02
8.376816660165786743e-02
1.472581028938293457e-01
1.970359534025192261e-01
1.893844306468963623e-01
1.140578016638755798e-01
1.314328312873840332e-01
1.179815754294395447e-01
4.251421988010406494e-02
-1.630037575960159302e-01
4.053113609552383423e-02
1.149559915065765381e-01
1.559827476739883423e-01
2.437154650688171387e-01
5.185338854789733887e-01
1.199953854084014893e-01
1.585714817047119141e-01
1.770084649324417114e-01
-1.437168419361114502e-01
9.055686742067337036e-02
7.281151413917541504e-02
4.512114822864532471e-01
1.851145774126052856e-01
-5.599826574325561523e-03
-8.009257912635803223e-02
-7.176499813795089722e-02
-6.228747963905334473e-02
3.881011623889207840e-03
1.059868633747100830e-01
7.272833585739135742e-02
7.239829748868942261e-02
2.307191789150238037e-01
-4.059092700481414795e-02
4.965287074446678162e-02
8.675416558980941772e-02
-1.021155249327421188e-02
-3.961096331477165222e-02
-1.375583857297897339e-01
9.003885835409164429e-02
3.238900303840637207e-01
4.603624641895294189e-01
3.481991291046142578e-01
1.026930660009384155e-01
1.783992052078247070e-01
1.925626546144485474e-01
8.670511841773986816e-02
-6.431959103792905807e-03
1.734891720116138458e-02
-6.435328722000122070e-02
4.214918911457061768e-01
2.643310129642486572e-01
6.131635606288909912e-02
-4.411704838275909424e-02
2.021732181310653687e-01
2.265879064798355103e-01
9.619066864252090454e-02
-3.771895542740821838e-03
4.712243005633354187e-02
-6.953951716423034668e-02
1.459560096263885498e-01
1.186899617314338684e-01
4.170219227671623230e-02
-1.336740553379058838e-01
-8.701128512620925903e-02
6.153361871838569641e-02
7.357328198850154877e-03
2.059105187654495239e-01
4.562904238700866699e-01
4.094583094120025635e-01
3.541310727596282959e-01
1.215095296502113342e-01
-4.304335266351699829e-02
3.231868520379066467e-02
-5.998302996158599854e-02
-1.372385025024414062e-01
-8.097887039184570312e-02
-5.544599145650863647e-02
3.287766277790069580e-01
4.067515581846237183e-02
1.132573932409286499e-02
-1.244220533408224583e-03
8.654541522264480591e-02
9.723218530416488647e-02
1.371810883283615112e-01
-3.272887691855430603e-02
-3.559994325041770935e-02
1.795540004968643188e-01
1.054924502968788147e-01
4.300147667527198792e-02
-1.283175349235534668e-01
-2.496721036732196808e-02
-8.825719356536865234e-02
3.783679753541946411e-02
9.330489486455917358e-02
1.622197777032852173e-01
3.470975756645202637e-01
2.915081083774566650e-01
8.936400711536407471e-02
1.016508042812347412e-01
1.977425813674926758e-01
1.985673904418945312e-01
3.240728378295898438e-02
-1.220348626375198364e-01
5.060328543186187744e-02
-9.583318233489990234e-02
1.856016814708709717e-01
2.151517868041992188e-01
-1.551928371191024780e-02
2.127023413777351379e-02
1.125676929950714111e-02
6.610422581434249878e-02
9.993573278188705444e-02
7.341174036264419556e-02
2.173596248030662537e-02
-3.527850285172462463e-02
2.739380672574043274e-02
-1.247800812125205994e-01
-1.091723740100860596e-01
-3.479544073343276978e-02
-5.198141187429428101e-02
1.002362146973609924e-01
7.504442473873496056e-04
1.001435294747352600e-01
1.073399931192398071e-01
4.687011986970901489e-02
1.583011746406555176e-01
5.984943732619285583e-02
1.806134283542633057e-01
6.470685452222824097e-02
6.610170751810073853e-02
2.441619038581848145e-01
-4.916138947010040283e-02
-1.067546606063842773e-01
1.736065894365310669e-01
-1.508138328790664673e-02
-3.497911989688873291e-02
1.022431403398513794e-01
5.628250911831855774e-02
1.609230935573577881e-01
-7.116018235683441162e-02
1.054071784019470215e-01
-3.820942714810371399e-02
-9.427274018526077271e-02
-4.083535447716712952e-02
-3.885090351104736328e-02
-1.010749712586402893e-01
-1.025661230087280273e-01
8.305460959672927856e-02
-2.007988467812538147e-02
-9.029254317283630371e-02
-1.775087416172027588e-01
6.751082092523574829e-02
-1.397472918033599854e-01
1.156974807381629944e-01
2.009744793176651001e-01
2.145888656377792358e-02
-6.195723079144954681e-03
9.323086589574813843e-02
-5.404732003808021545e-02
1.520027369260787964e-01
-3.149315416812896729e-01
9.714934229850769043e-02
6.955429911613464355e-03
2.257483452558517456e-02
-7.641662657260894775e-02
1.526656150817871094e-01
1.021605730056762695e-01
2.572241127490997314e-01
1.741254180669784546e-01
1.587037593126296997e-01
-3.632723689079284668e-01
-1.275501549243927002e-01
-3.922712430357933044e-02
-2.043134421110153198e-01
-1.092704832553863525e-01
-1.134547069668769836e-01
-9.562768042087554932e-02
-1.953644454479217529e-01
-1.856123656034469604e-01
-7.078295946121215820e-02
-1.658054143190383911e-01
-1.432222872972488403e-01
-5.731300264596939087e-02
-7.266388088464736938e-02
4.854439198970794678e-02
1.665484160184860229e-01
-7.853757590055465698e-02
8.762122131884098053e-03
-2.677080929279327393e-01
-4.374514520168304443e-02
-4.007156938314437866e-02
-5.020441859960556030e-02
4.125833511352539062e-04
3.355599194765090942e-02
-5.885256826877593994e-02
-4.758583381772041321e-02
1.172964796423912048e-01
2.168154716491699219e-01
-2.303384244441986084e-02
4.159646108746528625e-02
-1.416170001029968262e-01
-6.850019097328186035e-02
-4.843817651271820068e-02
1.008584629744291306e-02
-9.838754683732986450e-02
-2.282326370477676392e-01
-2.191959172487258911e-01
-9.019119292497634888e-02
-1.777223795652389526e-01
-2.631523609161376953e-01
-1.794364899396896362e-01
-2.127496153116226196e-01
-1.261015683412551880e-01
7.372383028268814087e-02
-1.302304118871688843e-01
3.117807395756244659e-02
-2.323959171772003174e-01
1.164166182279586792e-01
-3.176821395754814148e-02
3.092251718044281006e-02
1.471108943223953247e-02
-3.799830749630928040e-02
-1.158590689301490784e-01
-2.095578908920288086e-01
1.104234438389539719e-02
3.043806850910186768e-01
8.758007735013961792e-02
2.629315480589866638e-02
-8.736062049865722656e-02
-8.074999600648880005e-02
-3.825397416949272156e-02
-1.222727354615926743e-03
-1.058195456862449646e-01
-1.122890785336494446e-01
-2.663372755050659180e-01
-1.853663288056850433e-02
6.549800187349319458e-02
-2.061886936426162720e-01
-1.139718741178512573e-01
-1.783983856439590454e-01
-1.120017692446708679e-01
-1.944142021238803864e-02
-2.633831202983856201e-01
1.623284071683883667e-02
-3.538737297058105469e-01
1.972620189189910889e-02
-4.329950734972953796e-02
-1.441381871700286865e-02
-7.198743522167205811e-02
-1.207234114408493042e-01
-2.924197018146514893e-01
2.349225804209709167e-02
9.209091961383819580e-02
2.835783958435058594e-01
2.284750193357467651e-01
1.152397766709327698e-01
-3.521494939923286438e-02
-2.489335983991622925e-01
-1.003321856260299683e-01
-2.367710322141647339e-02
-1.522733420133590698e-01
-1.814118623733520508e-01
-2.308607250452041626e-01
-2.150027751922607422e-01
-5.608920753002166748e-02
-3.295011701993644238e-04
-1.313906013965606689e-01
2.347323112189769745e-02
-1.465758085250854492e-01
8.738173544406890869e-02
-1.898722499608993530e-01
-8.539670147001743317e-03
1.827775985002517700e-01
4.501561820507049561e-02
5.893743038177490234e-02
-7.154114544391632080e-03
7.327498495578765869e-02
-2.842682600021362305e-02
-3.451480716466903687e-02
2.823144495487213135e-01
4.722648561000823975e-01
-8.560701459646224976e-02
9.380774199962615967e-02
-2.750255465507507324e-01
-1.042024716734886169e-01
2.613875642418861389e-02
-4.338933620601892471e-03
-3.061538636684417725e-01
-2.709021866321563721e-01
3.917000070214271545e-02
-9.806193411350250244e-02
1.328191813081502914e-02
-2.218762785196304321e-01
-2.585260570049285889e-02
-8.093633502721786499e-02
-1.905032098293304443e-01
-1.982017010450363159e-01
-3.290684819221496582e-01
-3.097136020660400391e-01
-1.213792935013771057e-01
4.652845859527587891e-02
-5.918095260858535767e-02
1.693464070558547974e-02
-5.449442565441131592e-02
-2.448514103889465332e-03
2.894025295972824097e-02
6.591728329658508301e-02
1.497864574193954468e-01
4.751343727111816406e-01
5.598670244216918945e-01
2.169069200754165649e-01
9.021197259426116943e-02
2.006990015506744385e-01
-9.765020757913589478e-02
-2.048432379961013794e-01
-8.170779794454574585e-02
-1.360339373350143433e-01
1.278393566608428955e-01
-4.775043204426765442e-02
1.732858866453170776e-01
-2.129936516284942627e-01
-2.226939797401428223e-01
-1.350817829370498657e-01
-1.110509708523750305e-01
1.838804632425308228e-01
-7.404410839080810547e-02
1.949443221092224121e-01
6.945884227752685547e-02
1.142378896474838257e-02
8.209288120269775391e-02
-2.234430983662605286e-02
6.747952103614807129e-02
-3.291666507720947266e-04
-3.278025612235069275e-02
-1.488464325666427612e-02
-7.771784067153930664e-02
-1.550476551055908203e-01
-1.567992269992828369e-01
1.739933192729949951e-01
7.416376471519470215e-02
8.425261080265045166e-02
8.645687997341156006e-02
8.254474401473999023e-02
1.092015355825424194e-01
1.905301362276077271e-01
-8.862299472093582153e-02
4.736954718828201294e-02
4.199579823762178421e-03
8.392652869224548340e-02
3.183450698852539062e-01
2.119659036397933960e-01
6.545791774988174438e-02
1.341954916715621948e-01
2.000414133071899414e-01
-2.601971477270126343e-02
-8.870564401149749756e-03
5.485889315605163574e-02
3.557588905096054077e-02
5.866275727748870850e-02
2.162709832191467285e-02
2.910029888153076172e-02
-4.024542868137359619e-03
-5.339314788579940796e-02
-3.513649478554725647e-02
-7.835892587900161743e-02
-5.355072021484375000e-02
-1.290899515151977539e-02
1.279312372207641602e-02
-2.794796973466873169e-02
-3.736299276351928711e-02
6.072774529457092285e-03
2.062597125768661499e-02
3.967572748661041260e-02
-5.686061829328536987e-02
3.111613541841506958e-02
4.841682314872741699e-02
-1.131676137447357178e-02
4.236622899770736694e-02
-8.040693402290344238e-02
-7.672056555747985840e-03
-6.515178084373474121e-02
3.529353439807891846e-02
6.638370454311370850e-02
2.187015116214752197e-02
2.621535211801528931e-02
-1.938566565513610840e-02
5.460283160209655762e-02
-6.273750215768814087e-02
5.756609141826629639e-03
-3.131946921348571777e-02
2.346633374691009521e-02
7.509048283100128174e-02
7.060985267162322998e-02
7.869407534599304199e-02
6.632629781961441040e-02
4.707178473472595215e-02
-1.051602512598037720e-02
1.131204664707183838e-01
-2.762683108448982239e-02
5.735579878091812134e-02
1.840987503528594971e-01
1.480477303266525269e-01
1.783541738986968994e-01
-3.516604304313659668e-01
1.452242583036422729e-01
1.131738796830177307e-01
1.867311894893646240e-01
1.766696870326995850e-01
1.942142695188522339e-01
-6.648585665971040726e-03
6.923104822635650635e-02
7.186256349086761475e-02
-6.576269119977951050e-02
-4.446045681834220886e-02
7.394686341285705566e-02
-4.259683191776275635e-03
7.664066553115844727e-02
-6.180167198181152344e-02
-5.463748425245285034e-02
-2.610757574439048767e-02
4.653596878051757812e-02
-2.499812655150890350e-02
-8.440539240837097168e-02
8.023985475301742554e-02
2.654908597469329834e-02
-7.443036884069442749e-02
4.322203621268272400e-02
-1.950875669717788696e-01
-4.577907267957925797e-03
-8.044499903917312622e-03
1.046143099665641785e-01
8.430065959692001343e-02
1.932240575551986694e-01
-1.534719020128250122e-01
-3.935950994491577148e-02
1.893839836120605469e-01
1.613519191741943359e-01
2.550600767135620117e-01
-1.091655250638723373e-02
3.033358976244926453e-02
3.323231590911746025e-03
-7.788985222578048706e-02
3.120300918817520142e-02
-1.192867755889892578e-03
-6.774959713220596313e-02
5.309553071856498718e-02
-3.891614079475402832e-02
-4.023033753037452698e-02
-7.924714684486389160e-02
-1.318054050207138062e-01
-1.895563155412673950e-01
-1.998264528810977936e-02
3.343297541141510010e-02
6.998332589864730835e-02
5.154143646359443665e-02
1.650544255971908569e-01
1.587147638201713562e-02
1.557602137327194214e-01
1.857075281441211700e-02
1.832023411989212036e-01
1.410163044929504395e-01
2.207479327917098999e-01
1.848784834146499634e-02
-1.321474742144346237e-02
-3.986340481787919998e-03
3.786736726760864258e-01
2.182200253009796143e-01
2.758061885833740234e-01
-2.094146907329559326e-01
6.120818853378295898e-02
-7.456611841917037964e-02
6.855461001396179199e-02
5.376978218555450439e-02
-5.444002524018287659e-02
4.653997719287872314e-03
2.401235401630401611e-01
-3.288605436682701111e-02
-3.196709090843796730e-03
1.605822741985321045e-01
2.573175430297851562e-01
-6.388649344444274902e-02
-1.169189214706420898e-01
1.359319388866424561e-01
8.208022266626358032e-02
1.862731873989105225e-01
-4.823331907391548157e-02
1.018234193325042725e-01
1.384509503841400146e-01
-1.777856051921844482e-01
1.363746076822280884e-02
2.984908595681190491e-02
6.173632573336362839e-03
1.448473334312438965e-02
1.817567795515060425e-01
1.498775370419025421e-02
-3.292109444737434387e-02
-5.072993785142898560e-02
-2.039752006530761719e-01
5.369852483272552490e-02
7.856477797031402588e-02
4.437090456485748291e-02
1.627988368272781372e-02
6.371120363473892212e-02
-6.027828156948089600e-02
1.022605448961257935e-01
1.886915117502212524e-01
-7.330702990293502808e-02
-8.464341610670089722e-02
4.196869954466819763e-02
1.648128032684326172e-01
-1.559999436140060425e-01
-1.898258179426193237e-01
-3.253936022520065308e-02
-6.300243735313415527e-02
1.337094348855316639e-03
1.795077696442604065e-02
9.078084677457809448e-02
1.834915727376937866e-01
1.546423435211181641e-01
2.126401811838150024e-01
1.680343449115753174e-01
1.024517863988876343e-01
2.408285252749919891e-02
-2.500912547111511230e-02
2.249400466680526733e-01
1.017773970961570740e-01
-8.131823688745498657e-02
8.097502589225769043e-02
-3.971137106418609619e-03
1.102489978075027466e-02
-1.011405587196350098e-01
-1.049670279026031494e-01
1.453159004449844360e-01
-4.101606085896492004e-02
-3.907211124897003174e-01
6.420504301786422729e-02
2.359228730201721191e-01
-1.238822378218173981e-02
-6.588735431432723999e-02
-1.288290321826934814e-01
-7.414366304874420166e-02
-1.962184309959411621e-01
-1.180312503129243851e-02
-1.645447872579097748e-02
-1.088782697916030884e-01
-3.940538689494132996e-02
8.497721701860427856e-02
6.981174647808074951e-02
-1.525060236454010010e-01
-1.695682257413864136e-01
1.553540676832199097e-01
1.558347791433334351e-01
7.419325411319732666e-02
9.075216948986053467e-02
1.778251975774765015e-01
6.615386903285980225e-02
2.192027121782302856e-01
1.139443460851907730e-02
-1.095632165670394897e-01
9.194019250571727753e-03
1.075603067874908447e-01
-4.555717408657073975e-01
9.339518845081329346e-03
-1.459776908159255981e-01
-2.175709158182144165e-01
-1.347880959510803223e-01
-9.796020388603210449e-02
-2.120082527399063110e-01
-3.005187809467315674e-01
5.875576660037040710e-02
-1.377678513526916504e-01
-2.252395637333393097e-02
-5.961988866329193115e-02
-4.454303160309791565e-02
-1.025680638849735260e-02
1.435569766908884048e-02
2.576020732522010803e-02
4.813401773571968079e-02
-2.019192278385162354e-02
2.817448228597640991e-02
1.564426422119140625e-01
2.256663590669631958e-01
-1.315212845802307129e-01
-4.824827611446380615e-02
2.285747677087783813e-01
-1.191712543368339539e-02
-7.601034641265869141e-02
1.923134028911590576e-01
7.130103558301925659e-02
-1.768682003021240234e-01
1.381988823413848877e-01
-3.309289515018463135e-01
-2.350977808237075806e-01
-7.652711123228073120e-02
-1.984712630510330200e-01
-6.484800577163696289e-02
-3.702055290341377258e-02
-4.482613131403923035e-02
-6.476951390504837036e-02
7.148581556975841522e-03
-5.590164288878440857e-02
-1.421426385641098022e-01
-7.870296947658061981e-03
1.646731607615947723e-02
1.226947233080863953e-01
5.388888344168663025e-02
2.609722688794136047e-02
1.005855500698089600e-01
-2.481968328356742859e-02
3.089824020862579346e-01
-2.086510136723518372e-02
5.797735648229718208e-04
9.125997871160507202e-02
-3.091496527194976807e-01
1.042891945689916611e-02
2.805187106132507324e-01
1.145413219928741455e-01
4.291680455207824707e-02
1.027648001909255981e-01
-2.494477629661560059e-01
-1.864092424511909485e-02
3.082145750522613525e-02
8.194836229085922241e-02
-1.066038459539413452e-01
-2.234766334295272827e-01
-4.414590075612068176e-04
4.240683745592832565e-03
-4.123734682798385620e-02
1.354624927043914795e-01
-1.041668877005577087e-01
9.956704825162887573e-02
2.372488565742969513e-02
1.139467209577560425e-01
2.125393748283386230e-01
1.256313472986221313e-01
-1.814212948083877563e-01
1.689102947711944580e-01
-3.324563056230545044e-02
-2.063248008489608765e-01
-1.354215928586199880e-04
1.846829503774642944e-01
-1.836193948984146118e-01
1.911707967519760132e-01
3.771948814392089844e-01
1.045308038592338562e-01
-1.064479574561119080e-01
-3.151142969727516174e-02
-1.362089365720748901e-01
-1.310053318738937378e-01
1.946743577718734741e-01
-1.528379321098327637e-01
-1.295519322156906128e-01
5.762302502989768982e-02
1.711056381464004517e-01
-3.090593032538890839e-03
1.351199895143508911e-01
4.299000836908817291e-03
2.948577888309955597e-02
4.243617504835128784e-02
2.465787380933761597e-01
-1.679554395377635956e-02
1.753733456134796143e-01
1.673125624656677246e-01
-1.488813310861587524e-01
-3.535371422767639160e-01
-1.755834221839904785e-01
5.342978239059448242e-02
-2.077699871733784676e-03
-3.259735554456710815e-02
-1.792429536581039429e-01
2.545630931854248047e-01
3.150272369384765625e-01
2.431174814701080322e-01
-2.089611887931823730e-01
-5.059103295207023621e-02
-3.213616311550140381e-01
3.180105984210968018e-02
8.223426342010498047e-02
-1.346916556358337402e-01
-4.138112068176269531e-01
9.231237322092056274e-02
4.360272288322448730e-01
1.950852721929550171e-01
1.861676722764968872e-01
2.967870831489562988e-01
3.138384819030761719e-01
4.552188888192176819e-02
-2.044739276170730591e-01
3.420255705714225769e-02
-2.508240640163421631e-01
-6.106905639171600342e-02
-2.424022741615772247e-02
-5.990508478134870529e-03
2.792588770389556885e-01
-5.409327149391174316e-02
6.851758807897567749e-02
-8.453059941530227661e-03
2.344252169132232666e-02
-2.735606729984283447e-01
6.116593256592750549e-02
1.687692850828170776e-01
-2.618885338306427002e-01
4.620550572872161865e-02
-2.768354713916778564e-01
-6.516883522272109985e-02
-1.404178291559219360e-01
-1.695640236139297485e-01
-1.770407259464263916e-01
1.624515950679779053e-01
3.823699057102203369e-01
2.741847038269042969e-01
2.272020280361175537e-01
3.770953416824340820e-01
1.718664467334747314e-01
2.276388928294181824e-02
-2.536981999874114990e-01
-2.724095284938812256e-01
-2.119379341602325439e-01
-1.572373956441879272e-01
-3.053348660469055176e-01
-1.566269546747207642e-01
-2.266146689653396606e-01
2.031885460019111633e-02
-5.874733254313468933e-02
1.876954175531864166e-02
-1.705558747053146362e-01
-1.381400823593139648e-01
1.183977648615837097e-01
9.931641072034835815e-02
5.946143716573715210e-02
7.917585782706737518e-03
-1.723728179931640625e-01
-5.327460821717977524e-03
-2.939660251140594482e-01
-2.322879284620285034e-01
2.140166051685810089e-02
2.626374177634716034e-02
3.248809874057769775e-01
2.325592041015625000e-01
1.002482995390892029e-01
1.680613905191421509e-01
3.111293306574225426e-03
-1.709591448307037354e-01
-3.505055308341979980e-01
-2.816474139690399170e-01
-2.850827574729919434e-01
-1.904615759849548340e-01
-1.605751961469650269e-01
2.739893831312656403e-02
-1.685790717601776123e-01
-3.293101862072944641e-02
3.533656895160675049e-02
-2.701824530959129333e-02
6.896550953388214111e-02
2.329140529036521912e-02
-7.823979854583740234e-02
1.033868044614791870e-01
6.744923442602157593e-02
-3.024933040142059326e-01
-5.707550421357154846e-02
-2.657628655433654785e-01
-1.336769480258226395e-02
-1.985564976930618286e-01
8.270893245935440063e-02
1.477022469043731689e-01
1.931946128606796265e-01
-3.657422959804534912e-02
5.230221897363662720e-02
-7.827696949243545532e-02
-3.319086432456970215e-01
-1.828472614288330078e-01
-1.148695722222328186e-01
-2.627241909503936768e-01
-3.567506372928619385e-01
-4.029502272605895996e-01
1.278309673070907593e-01
4.415842145681381226e-02
-1.386459022760391235e-01
-6.558011472225189209e-02
1.449274271726608276e-02
5.647141858935356140e-02
1.117615625262260437e-01
-3.668941855430603027e-01
5.021888017654418945e-02
2.503393292427062988e-01
-5.615328997373580933e-02
4.829334095120429993e-02
7.728753238916397095e-02
-1.083566471934318542e-01
-2.631133496761322021e-01
-1.491258144378662109e-01
-1.617099717259407043e-02
2.174934446811676025e-01
2.365848869085311890e-01
-1.260387897491455078e-01
-7.756210118532180786e-02
-2.175188511610031128e-01
-5.318860709667205811e-02
-9.538788348436355591e-02
-3.141268715262413025e-02
5.064885597676038742e-03
-2.422502934932708740e-01
-1.194712743163108826e-01
-1.620291322469711304e-01
-2.407465688884258270e-02
-7.674985378980636597e-02
-2.849763631820678711e-02
4.296882450580596924e-02
2.588772028684616089e-02
2.055275738239288330e-01
3.170507773756980896e-02
1.538731753826141357e-01
6.353244930505752563e-02
1.392637044191360474e-01
1.825262159109115601e-01
-8.673804998397827148e-02
6.311698257923126221e-02
-2.295698076486587524e-01
-1.604986339807510376e-01
-2.013052701950073242e-01
9.070423990488052368e-02
-2.826785668730735779e-02
-1.098869219422340393e-01
-7.177419960498809814e-02
9.707839041948318481e-02
1.828920990228652954e-01
1.241326406598091125e-01
1.811776496469974518e-02
-1.805185824632644653e-01
-2.823094427585601807e-01
-2.309771776199340820e-01
-1.805554926395416260e-01
-1.573737710714340210e-01
7.266574352979660034e-02
-1.338541507720947266e-02
7.982894778251647949e-03
8.117164671421051025e-02
-5.180810391902923584e-02
3.570028021931648254e-02
2.171467542648315430e-01
1.677783578634262085e-02
4.786466807126998901e-02
3.003352284431457520e-01
-1.493986248970031738e-01
-1.227415278553962708e-01
-2.431617379188537598e-01
-1.061146780848503113e-01
-1.096174493432044983e-01
-2.116469144821166992e-01
-1.209338158369064331e-01
-1.950114965438842773e-01
-4.755347594618797302e-02
1.755182892084121704e-01
2.800959162414073944e-02
5.840909853577613831e-02
-1.904800720512866974e-02
-1.751417368650436401e-01
-3.394661843776702881e-01
-1.783937960863113403e-01
-4.734448492527008057e-01
-3.584284186363220215e-01
8.108522742986679077e-03
-5.217612162232398987e-02
1.550726592540740967e-03
9.992995858192443848e-02
-3.332323953509330750e-02
1.624648571014404297e-01
1.730320453643798828e-01
2.508372366428375244e-01
5.721547454595565796e-02
7.548093795776367188e-02
-1.194720491766929626e-01
-8.842611312866210938e-02
-1.899673193693161011e-01
-1.364802271127700806e-01
-8.504339307546615601e-02
9.306116960942745209e-03
-4.058679938316345215e-02
6.021708622574806213e-02
-3.178682643920183182e-03
1.833582669496536255e-01
2.930808663368225098e-01
6.179223582148551941e-02
-1.821048408746719360e-01
-1.916183382272720337e-01
-4.953034520149230957e-01
-5.714651942253112793e-01
-3.784939944744110107e-01
-1.172676831483840942e-01
1.607316583395004272e-01
8.164551854133605957e-02
-4.098636656999588013e-02
5.945607088506221771e-03
-1.408313214778900146e-01
2.245115339756011963e-01
-8.694329857826232910e-02
4.415694251656532288e-02
-1.233062241226434708e-02
1.149155944585800171e-01
1.389259248971939087e-01
3.856295254081487656e-03
-7.817262411117553711e-02
-1.214766502380371094e-01
-1.484488788992166519e-02
5.911928787827491760e-02
1.053922325372695923e-01
3.282084316015243530e-02
2.335855066776275635e-01
3.797105848789215088e-01
2.405246049165725708e-01
-1.024195402860641479e-01
-2.364320456981658936e-01
-3.421338498592376709e-01
-5.067269206047058105e-01
-5.362400412559509277e-01
-3.712695837020874023e-01
-2.217653095722198486e-01
1.472359746694564819e-01
4.583854973316192627e-02
-6.773883104324340820e-02
5.152217578142881393e-03
-1.606503874063491821e-01
-2.309072464704513550e-01
4.052764773368835449e-01
5.852152034640312195e-02
1.284946352243423462e-01
2.422699518501758575e-02
-2.213629335165023804e-02
2.550993859767913818e-02
5.840464681386947632e-02
-1.738324388861656189e-02
1.384004801511764526e-01
2.066630274057388306e-01
2.429703176021575928e-01
1.723931133747100830e-01
2.102565169334411621e-01
3.505349457263946533e-01
-6.873864680528640747e-02
-1.894647479057312012e-01
-2.135001122951507568e-01
-2.822340130805969238e-01
-4.188145399093627930e-01
-4.921896383166313171e-02
-2.584631741046905518e-01
-1.161476224660873413e-01
1.161149740219116211e-01
-4.808779805898666382e-02
-2.497296407818794250e-02
1.425732821226119995e-01
-1.822350174188613892e-01
-1.899329125881195068e-01
5.143105983734130859e-03
5.440800264477729797e-02
1.045375689864158630e-01
-8.446501940488815308e-02
-3.108459524810314178e-02
-1.678301095962524414e-01
-1.263631433248519897e-01
-2.659847773611545563e-02
8.638644963502883911e-02
2.705240845680236816e-01
1.511679738759994507e-01
1.334178596735000610e-01
2.421451807022094727e-01
2.309823594987392426e-02
-2.414858937263488770e-01
-3.122318089008331299e-01
-3.319446444511413574e-01
-8.249951601028442383e-01
-2.921503782272338867e-01
-2.953276932239532471e-01
-1.296485215425491333e-01
-2.380196377635002136e-02
-1.090736463665962219e-01
-6.314527243375778198e-02
1.415769010782241821e-02
-4.342621937394142151e-02
5.610902979969978333e-02
6.180570274591445923e-02
-1.503358688205480576e-02
3.005820885300636292e-02
5.521979555487632751e-02
-4.359693825244903564e-02
-8.716821670532226562e-02
1.099556218832731247e-02
1.320715434849262238e-02
1.511881798505783081e-01
1.831477731466293335e-01
5.479820072650909424e-02
1.044521182775497437e-01
8.424442261457443237e-02
-9.995023161172866821e-02
-2.381942570209503174e-01
-4.678032994270324707e-01
-4.107410013675689697e-01
-8.351690173149108887e-01
-5.375745892524719238e-01
-3.040246665477752686e-01
-2.109415084123611450e-01
-2.056962549686431885e-01
-6.903893500566482544e-02
1.323020271956920624e-02
-3.961877897381782532e-02
1.524996757507324219e-02
-1.991276815533638000e-02
2.020198702812194824e-01
5.892917141318321228e-02
7.684283889830112457e-03
-9.799207001924514771e-02
-2.009578198194503784e-01
-1.869408041238784790e-02
1.133204400539398193e-01
-9.432090073823928833e-02
-2.306350022554397583e-01
8.772081136703491211e-02
1.273294091224670410e-01
1.336562037467956543e-01
6.687971204519271851e-02
1.030736416578292847e-01
-4.716658294200897217e-01
-6.218748092651367188e-01
-6.470400094985961914e-01
-5.090935230255126953e-01
-1.997227072715759277e-01
-1.904890239238739014e-01
-1.178746148943901062e-01
-1.637118756771087646e-01
1.050018891692161560e-01
-9.450659900903701782e-02
-2.437424473464488983e-02
8.063001930713653564e-02
1.453228294849395752e-02
6.725625693798065186e-02
1.389128267765045166e-01
3.937558531761169434e-01
-2.129267342388629913e-02
1.163549199700355530e-01
-1.017995029687881470e-01
-9.441914409399032593e-02
-2.265045046806335449e-01
-2.233354561030864716e-02
-4.348655045032501221e-02
8.102875947952270508e-02
5.850425362586975098e-02
1.540515851229429245e-02
-2.422431297600269318e-02
-3.253732621669769287e-01
-3.040011227130889893e-01
-5.108439326286315918e-01
-3.520088493824005127e-01
-1.072470843791961670e-01
-6.113317981362342834e-02
1.108760461211204529e-01
1.082708463072776794e-01
-1.737312525510787964e-01
-5.258302763104438782e-02
-2.502708323299884796e-02
-7.473500072956085205e-02
6.710237264633178711e-02
-7.751912623643875122e-02
-5.799609795212745667e-02
-7.338764518499374390e-02
-4.070793464779853821e-02
-1.184333767741918564e-02
-2.354895137250423431e-02
2.740767896175384521e-01
1.795597374439239502e-01
1.804081648588180542e-01
2.189621627330780029e-01
1.395277492702007294e-02
-1.351241916418075562e-01
1.062150392681360245e-02
1.066898331046104431e-01
-2.834978401660919189e-01
-7.188989520072937012e-01
-2.917391061782836914e-01
-1.766948699951171875e-01
-6.741540133953094482e-02
3.677719086408615112e-02
-6.626223027706146240e-02
-9.224783629179000854e-02
2.289033494889736176e-02
-4.881984740495681763e-02
-3.192625567317008972e-02
6.027008593082427979e-02
-3.037982806563377380e-02
-6.524577736854553223e-03
-4.490407556295394897e-02
8.008606731891632080e-02
1.931833475828170776e-02
6.431888043880462646e-02
5.931763723492622375e-02
-3.314676582813262939e-01
-1.466163396835327148e-01
-2.838152945041656494e-01
-1.046352162957191467e-01
-7.782687246799468994e-02
1.590769141912460327e-01
1.545424312353134155e-01
-6.738171577453613281e-01
-2.788839936256408691e-01
-6.358086317777633667e-02
-1.220887228846549988e-01
-1.417111158370971680e-01
-1.969701647758483887e-01
4.064994305372238159e-02
1.294496208429336548e-01
1.509882882237434387e-02
5.631962046027183533e-02
1.335237473249435425e-01
3.569857776165008545e-02
5.713339149951934814e-02
2.787287533283233643e-02
6.121896207332611084e-03
-6.376734375953674316e-02
1.562257856130599976e-02
4.352577030658721924e-02
-1.724011451005935669e-02
3.505884855985641479e-02
3.949026018381118774e-02
-1.726300716400146484e-01
-9.430242329835891724e-02
-1.380238384008407593e-01
-8.526442945003509521e-02
9.207584708929061890e-02
-2.001792341470718384e-01
-2.411787658929824829e-01
5.556241050362586975e-02
1.200552582740783691e-01
2.942172288894653320e-01
1.957511156797409058e-01
2.015928328037261963e-01
-4.915881436318159103e-03
-1.188689991831779480e-01
3.543293103575706482e-02
-1.940316148102283478e-02
9.100027382373809814e-03
-2.636749669909477234e-02
5.242064595222473145e-03
5.341754853725433350e-02
-2.120080217719078064e-02
6.122918426990509033e-02
-1.288905739784240723e-02
-7.231514155864715576e-02
-2.829816937446594238e-02
7.486008107662200928e-03
2.258750051259994507e-02
-3.710913658142089844e-02
-5.243567377328872681e-02
4.794695973396301270e-02
-1.601921766996383667e-02
7.542823255062103271e-02
-1.696620136499404907e-02
-2.587968483567237854e-02
6.592065095901489258e-02
7.771733403205871582e-02
3.001080080866813660e-02
-1.485240925103425980e-02
4.978230595588684082e-02
8.540809154510498047e-03
-6.880164891481399536e-02
-5.223681777715682983e-02
3.921917825937271118e-02
7.126989960670471191e-02
-7.751148194074630737e-02
1.740801334381103516e-02
-4.352441057562828064e-02
-5.306029319763183594e-02
-3.775446116924285889e-02
-2.119787409901618958e-02
-3.039568662643432617e-03
-7.400542497634887695e-03
6.012441217899322510e-02
-5.283334851264953613e-02
6.749083101749420166e-02
6.676290929317474365e-02
-7.099878787994384766e-02
3.354856744408607483e-02
-4.567327350378036499e-02
1.066166907548904419e-01
-8.968301862478256226e-02
-1.450737714767456055e-01
1.239781603217124939e-01
1.221450567245483398e-01
-2.720326185226440430e-01
2.479468137025833130e-01
-1.182533204555511475e-01
6.938092410564422607e-02
-1.862685829401016235e-01
-2.476775497198104858e-01
-1.857073456048965454e-01
-2.514666318893432617e-01
-1.874125599861145020e-01
-1.207939833402633667e-01
-5.771660804748535156e-02
-5.239917710423469543e-02
-6.735280156135559082e-02
3.545491397380828857e-02
-7.767317444086074829e-02
-2.066963911056518555e-02
-5.091275647282600403e-02
3.749547898769378662e-02
-2.742874622344970703e-02
4.093742743134498596e-02
-2.255713194608688354e-02
-6.279630213975906372e-02
6.132307276129722595e-02
-8.300265669822692871e-02
1.465987861156463623e-01
2.739726901054382324e-01
1.670613437891006470e-01
2.687188982963562012e-01
3.740283548831939697e-01
1.107824072241783142e-01
2.411179393529891968e-01
-8.396718651056289673e-02
-1.277296841144561768e-01
1.074325516819953918e-01
-9.143134951591491699e-02
-1.025981009006500244e-01
-5.823741853237152100e-02
-2.013122588396072388e-01
-1.732830516993999481e-02
-3.000758355483412743e-03
7.198821753263473511e-02
-2.428004890680313110e-02
4.323311150074005127e-02
1.891421526670455933e-02
5.050800740718841553e-02
-5.491040274500846863e-02
-1.684442162513732910e-02
6.487886607646942139e-02
1.082234317436814308e-03
1.667275838553905487e-02
-9.443353116512298584e-02
-2.119853943586349487e-01
1.126221716403961182e-01
-1.058527231216430664e-01
-2.943125367164611816e-01
-1.252808123826980591e-01
1.006844714283943176e-01
7.766654342412948608e-02
-2.222304344177246094e-01
-1.402452588081359863e-01
-1.707693040370941162e-01
-5.349502339959144592e-02
-1.357315331697463989e-01
-3.241434097290039062e-01
2.397002726793289185e-01
1.343661397695541382e-01
1.205223575234413147e-01
-6.411207467317581177e-02
-2.786387689411640167e-02
5.937047302722930908e-02
-1.339386403560638428e-02
-5.410539358854293823e-02
6.179369986057281494e-02
1.853124648332595825e-01
-7.855100929737091064e-02
-1.661467999219894409e-01
-2.533155381679534912e-01
-2.168088257312774658e-01
-3.231606185436248779e-01
-3.235682547092437744e-01
-4.369863867759704590e-02
-9.818074852228164673e-02
-2.081110775470733643e-01
-1.477887034416198730e-01
3.629773855209350586e-02
5.771084502339363098e-02
-1.654149293899536133e-01
-1.673800200223922729e-01
1.682660579681396484e-01
9.394948929548263550e-02
1.562855839729309082e-01
-1.893908344209194183e-02
1.509202271699905396e-01
2.251155376434326172e-01
7.106484472751617432e-02
-3.372865915298461914e-02
-6.608834862709045410e-02
2.369259670376777649e-02
-4.319114238023757935e-02
4.320453107357025146e-02
-6.257044523954391479e-02
-4.421080648899078369e-02
-1.162962540984153748e-01
-1.917892247438430786e-01
-2.984644770622253418e-01
-2.277785837650299072e-01
-1.945902705192565918e-01
-4.626216366887092590e-02
-3.064147233963012695e-01
2.334607578814029694e-02
1.190989017486572266e-01
1.172657310962677002e-01
1.705532073974609375e-01
1.446401774883270264e-01
-1.481621153652667999e-02
-2.161729186773300171e-01
-1.395288854837417603e-01
1.109468340873718262e-01
-1.264296174049377441e-01
2.426769435405731201e-01
2.981218993663787842e-01
2.594447433948516846e-01
1.015719845890998840e-01
3.102922141551971436e-01
3.976601734757423401e-02
-2.074833214282989502e-01
-2.188851311802864075e-02
6.369476020336151123e-02
-1.410000026226043701e-02
-1.781319826841354370e-02
-9.723203629255294800e-02
-1.951906234025955200e-01
5.879214778542518616e-02
-2.315738946199417114e-01
-6.051992624998092651e-02
-2.990247681736946106e-02
-2.164241522550582886e-01
-1.710911244153976440e-01
5.135452747344970703e-02
2.383033782243728638e-01
2.081453055143356323e-01
1.176391076296567917e-02
4.083330277353525162e-03
-9.218689054250717163e-02
2.500738017261028290e-02
-9.928754717111587524e-02
-8.483513444662094116e-02
4.149951785802841187e-02
4.985157772898674011e-02
2.684171795845031738e-01
3.482869267463684082e-02
2.931528724730014801e-02
1.373748630285263062e-01
-3.194929659366607666e-02
-1.895110458135604858e-01
4.206179827451705933e-02
-2.280953377485275269e-01
2.688920497894287109e-01
-1.819462478160858154e-01
-1.541003733873367310e-01
-2.490558624267578125e-01
-5.470552295446395874e-02
-1.079174280166625977e-01
-3.145974874496459961e-01
-2.930203378200531006e-01
-1.235930547118186951e-01
3.436644375324249268e-01
3.910913765430450439e-01
2.360536158084869385e-01
-1.064838320016860962e-01
-1.448303610086441040e-01
-9.996848553419113159e-02
-1.926719024777412415e-02
-5.905983597040176392e-02
-6.144564226269721985e-02
1.738691888749599457e-02
-6.347495317459106445e-02
-8.862686157226562500e-02
-1.198102161288261414e-01
-2.983382344245910645e-01
-1.217701006680727005e-03
2.147396355867385864e-01
1.329479217529296875e-01
5.076786875724792480e-02
-2.042515948414802551e-02
5.182821676135063171e-02
-7.009685784578323364e-02
-2.052519768476486206e-01
-1.530151218175888062e-01
-3.523113578557968140e-02
-1.307011991739273071e-01
-3.534679710865020752e-01
-2.072263360023498535e-01
7.415159791707992554e-02
3.180066943168640137e-01
3.268986046314239502e-01
2.278849929571151733e-01
-6.017752364277839661e-02
-1.568337678909301758e-01
-2.537381350994110107e-01
6.918536126613616943e-02
1.271623093634843826e-02
-1.989182382822036743e-01
3.019377961754798889e-02
-1.572622656822204590e-01
-5.284507945179939270e-02
-8.684717118740081787e-02
1.000854298472404480e-01
1.380731761455535889e-01
1.325345933437347412e-01
-3.762155538424849510e-03
-9.310823678970336914e-02
-8.410905301570892334e-02
-4.606661945581436157e-02
1.984436959028244019e-01
-4.507432878017425537e-02
-1.843737065792083740e-01
-1.940347850322723389e-01
-2.691910602152347565e-02
-3.236052095890045166e-01
-1.200952157378196716e-01
9.641028940677642822e-02
1.631711572408676147e-01
3.520683944225311279e-01
3.118091523647308350e-01
-6.135402619838714600e-02
-2.240668982267379761e-01
4.414495080709457397e-02
1.078791264444589615e-02
6.153875589370727539e-02
-1.611831933259963989e-01
-1.173177808523178101e-01
-1.712100952863693237e-01
-1.354443579912185669e-01
-1.559771299362182617e-01
5.161743760108947754e-01
2.921704947948455811e-01
-8.107140660285949707e-02
-2.564896941184997559e-01
-1.207455992698669434e-01
1.582490280270576477e-02
1.907878518104553223e-01
-1.564790606498718262e-01
-9.464623034000396729e-02
1.615958809852600098e-01
5.441532284021377563e-02
-3.346239328384399414e-01
-3.584077954292297363e-01
-3.556526601314544678e-01
-4.460663348436355591e-02
2.013308405876159668e-01
2.163990437984466553e-01
3.448742926120758057e-01
1.280823200941085815e-01
7.000210881233215332e-02
3.081893734633922577e-02
1.357051134109497070e-01
-1.362012177705764771e-01
-2.608159780502319336e-01
6.350211054086685181e-02
2.837237119674682617e-01
-5.054691806435585022e-02
1.090871393680572510e-01
4.289262294769287109e-01
-9.968649595975875854e-02
4.220496118068695068e-02
-2.046340405941009521e-01
-3.347716107964515686e-02
-5.425438284873962402e-02
1.584530919790267944e-01
4.737237468361854553e-02
5.898934323340654373e-03
-1.319495737552642822e-01
-1.828217506408691406e-02
2.098322063684463501e-01
-4.468429684638977051e-01
-1.969053596258163452e-01
-2.435293495655059814e-01
-5.341440811753273010e-02
2.108827084302902222e-01
1.944840550422668457e-01
-6.010785233229398727e-03
-7.531179487705230713e-02
1.617000401020050049e-01
3.438656032085418701e-02
-8.629719913005828857e-02
-7.134137302637100220e-02
-4.503386840224266052e-02
1.907640695571899414e-01
1.490246653556823730e-01
1.499218493700027466e-01
1.710698008537292480e-01
1.336022317409515381e-01
-9.056290984153747559e-02
-7.803589105606079102e-02
6.427730619907379150e-02
3.710733354091644287e-02
2.091380804777145386e-01
3.704245388507843018e-02
2.391311340034008026e-02
-2.460888326168060303e-01
-8.330358564853668213e-02
5.157025996595621109e-03
4.601000342518091202e-03
-1.608457416296005249e-01
-2.395435124635696411e-01
9.286668151617050171e-02
-4.492643848061561584e-02
1.717869788408279419e-01
-3.712877631187438965e-02
-2.006008327007293701e-01
2.041639061644673347e-03
1.973677128553390503e-01
-1.603521257638931274e-01
-1.316435635089874268e-01
1.886553876101970673e-02
1.804322749376296997e-01
4.759871363639831543e-01
2.417415231466293335e-01
3.649906516075134277e-01
2.595213055610656738e-01
1.702762208878993988e-02
-1.053582876920700073e-01
3.869414329528808594e-02
3.013111650943756104e-03
-1.786749660968780518e-01
1.408847570419311523e-01
-1.903476193547248840e-02
-2.347332239151000977e-01
-3.580769896507263184e-02
2.163123711943626404e-02
4.008112847805023193e-02
-1.892265379428863525e-01
-1.699682325124740601e-01
-1.817717999219894409e-01
1.590453386306762695e-01
1.151641011238098145e-01
-4.980314150452613831e-02
-1.366045176982879639e-01
-4.189419746398925781e-02
-3.425674140453338623e-02
-1.059648990631103516e-01
-1.880968064069747925e-01
-7.279468327760696411e-02
1.016686707735061646e-01
3.006705641746520996e-01
4.143208563327789307e-01
2.806129157543182373e-01
3.116179704666137695e-01
3.959975540637969971e-01
2.985389530658721924e-01
-2.064141258597373962e-02
1.505641639232635498e-02
-5.577997863292694092e-02
8.496022224426269531e-02
-6.239486858248710632e-02
-4.794101417064666748e-02
-6.217645853757858276e-02
-1.746247522532939911e-02
-8.961974829435348511e-02
-1.513945460319519043e-01
-9.716393798589706421e-02
1.160359829664230347e-01
8.584369719028472900e-02
1.585560739040374756e-01
-1.290721893310546875e-01
-2.204144001007080078e-01
-1.720920950174331665e-01
-2.013774067163467407e-01
-3.176778256893157959e-01
-3.384754955768585205e-01
8.721631765365600586e-02
1.852864283137023449e-03
8.632422983646392822e-02
1.546415835618972778e-01
6.147524714469909668e-01
3.411365747451782227e-01
3.376461863517761230e-01
-5.308873578906059265e-02
9.956970810890197754e-03
-1.149453446269035339e-01
-1.139447540044784546e-01
3.281920850276947021e-01
8.233158290386199951e-02
-1.781999308150261641e-04
2.548135071992874146e-02
5.349487811326980591e-02
-9.044144302606582642e-02
6.746503710746765137e-02
1.895815432071685791e-01
2.872393727302551270e-01
2.464896291494369507e-01
4.492381587624549866e-03
-1.477381438016891479e-01
-1.937918365001678467e-01
-9.821830689907073975e-02
-7.826987653970718384e-02
-1.713660061359405518e-01
-1.107577979564666748e-01
-3.792155534029006958e-02
-1.903708651661872864e-02
-1.612397432327270508e-01
-9.167896583676338196e-03
2.998786568641662598e-01
5.632698535919189453e-01
4.546838104724884033e-01
1.400288939476013184e-01
5.774579942226409912e-03
5.586998164653778076e-02
-2.605711519718170166e-01
1.546005606651306152e-01
5.129478499293327332e-02
9.285292774438858032e-02
5.610520020127296448e-03
1.491626501083374023e-01
-1.303986459970474243e-01
3.198727220296859741e-02
1.480971276760101318e-01
3.563412427902221680e-01
2.793828845024108887e-01
-1.739501208066940308e-02
-1.221565231680870056e-01
3.965841606259346008e-02
-7.277894020080566406e-02
1.290563791990280151e-01
-5.454471334815025330e-02
-1.711873114109039307e-01
-1.985714584589004517e-01
1.366682052612304688e-01
-8.779881149530410767e-02
2.223739400506019592e-03
9.112699329853057861e-02
5.136618018150329590e-01
5.013526082038879395e-01
3.062966167926788330e-01
-4.352293908596038818e-03
-5.755441635847091675e-02
-2.464303523302078247e-01
-3.444948792457580566e-02
-1.647292673587799072e-01
2.301133237779140472e-02
-3.629101440310478210e-02
-1.756060682237148285e-02
1.355864107608795166e-01
1.837464123964309692e-01
2.881363332271575928e-01
2.390446066856384277e-01
1.626086682081222534e-01
-1.424990594387054443e-01
7.051052153110504150e-02
1.877645552158355713e-01
9.015398100018501282e-03
1.066931709647178650e-02
-8.234818279743194580e-02
-1.841908991336822510e-01
-2.199873328208923340e-01
5.667122825980186462e-02
8.711498975753784180e-02
-1.431144624948501587e-01
8.363609760999679565e-02
9.611660242080688477e-02
4.598141312599182129e-01
-4.600798711180686951e-02
4.614284634590148926e-02
-1.220526024699211121e-01
-3.528436720371246338e-01
-5.163742229342460632e-02
1.984025724232196808e-02
7.399032264947891235e-02
7.527043670415878296e-02
3.195384889841079712e-02
2.266574651002883911e-01
2.093929499387741089e-01
2.715798020362854004e-01
1.692015081644058228e-01
-1.069316491484642029e-01
-2.407668679952621460e-01
-5.647663399577140808e-02
-1.841445080935955048e-02
-4.067912697792053223e-02
-1.337515711784362793e-01
-7.821220904588699341e-02
-6.738419830799102783e-02
-1.012350842356681824e-01
6.235241517424583435e-02
-1.445019990205764771e-02
-1.396565437316894531e-01
2.558320760726928711e-01
3.270593881607055664e-01
1.442968845367431641e-01
2.848722934722900391e-01
5.972214043140411377e-02
-9.688583016395568848e-02
2.552168965339660645e-01
1.280217780731618404e-03
4.741913080215454102e-02
-2.951272390782833099e-02
-4.217426478862762451e-02
1.421868652105331421e-01
2.490216046571731567e-01
1.954638659954071045e-01
1.485356986522674561e-01
8.961846679449081421e-02
-3.253847956657409668e-01
-1.831914037466049194e-01
4.476176947355270386e-02
1.617280542850494385e-01
1.131939738988876343e-01
7.783263921737670898e-02
-4.660101979970932007e-02
-2.860814146697521210e-02
-2.165374346077442169e-02
1.690076887607574463e-01
-1.082771690562367439e-03
-7.398064248263835907e-03
-6.126808002591133118e-03
3.675624728202819824e-01
4.486193656921386719e-01
7.774648070335388184e-02
-7.494098693132400513e-02
-5.121127516031265259e-02
2.350357621908187866e-01
4.082660749554634094e-02
1.041047126054763794e-01
7.096082717180252075e-02
2.720167487859725952e-02
3.292990103363990784e-02
2.105523943901062012e-01
3.000607490539550781e-01
2.019111216068267822e-01
-9.476526826620101929e-02
-1.650859862565994263e-01
-7.080960273742675781e-02
1.620968282222747803e-01
1.371791362762451172e-01
1.643959730863571167e-01
1.332091689109802246e-01
1.811439841985702515e-01
1.376825198531150818e-02
7.029864192008972168e-02
9.207481145858764648e-02
1.931704208254814148e-02
-1.990306004881858826e-02
-1.700970381498336792e-01
-2.355274558067321777e-01
1.744530498981475830e-01
6.345984339714050293e-02
-5.382659286260604858e-02
-3.463283926248550415e-02
1.221363171935081482e-01
2.820053696632385254e-01
2.379479557275772095e-01
1.600055396556854248e-01
3.179859742522239685e-02
9.429766237735748291e-02
3.142341226339340210e-02
2.464071661233901978e-01
-5.626118741929531097e-03
-8.530114591121673584e-02
-3.031245432794094086e-02
-3.148871287703514099e-02
-4.294970538467168808e-03
3.592236340045928955e-02
4.287031665444374084e-02
8.542917668819427490e-02
-9.225579351186752319e-02
-1.630423963069915771e-01
-9.704150259494781494e-02
-5.508906766772270203e-02
8.657598495483398438e-02
1.508140116930007935e-01
-1.945357210934162140e-02
-1.225491911172866821e-01
9.493396431207656860e-02
-1.205652207136154175e-02
5.624730885028839111e-02
-4.624396562576293945e-03
1.124303787946701050e-01
1.337165385484695435e-01
1.718079000711441040e-01
1.026569008827209473e-01
2.379400422796607018e-03
9.300576150417327881e-02
8.518986403942108154e-03
2.878046967089176178e-02
1.480234116315841675e-01
8.862502127885818481e-02
-4.230255261063575745e-02
-8.227995596826076508e-03
-1.958540380001068115e-01
-4.173572733998298645e-02
-9.115427732467651367e-02
-1.119513437151908875e-01
-1.030525714159011841e-01
2.686489522457122803e-01
-2.954059652984142303e-02
6.430300325155258179e-02
-6.348606199026107788e-02
-7.268572598695755005e-02
-1.276144832372665405e-01
-1.831037998199462891e-01
1.038297861814498901e-01
8.237326145172119141e-02
5.470603704452514648e-03
5.678571760654449463e-03
-6.814395636320114136e-02
-1.637235879898071289e-01
3.970128297805786133e-02
5.065793171525001526e-02
5.698078125715255737e-02
-1.677743941545486450e-01
-4.016663879156112671e-03
8.482135832309722900e-02
1.275068819522857666e-01
1.146166212856769562e-02
1.321701239794492722e-02
-1.645349860191345215e-01
-1.930056959390640259e-01
-5.937132518738508224e-04
-6.293161213397979736e-02
-2.121062576770782471e-02
7.415684312582015991e-02
2.282401621341705322e-01
-1.434895843267440796e-01
1.194124016910791397e-02
-9.134165942668914795e-02
1.992894709110260010e-01
-1.668239831924438477e-01
-7.092003524303436279e-02
1.783190667629241943e-01
7.786722481250762939e-02
-4.013601690530776978e-02
1.369357854127883911e-02
-9.124807268381118774e-02
-1.569862812757492065e-01
-1.164090037345886230e-01
-2.830865383148193359e-01
-1.725078523159027100e-01
-4.385900124907493591e-02
1.474434975534677505e-02
1.975657939910888672e-01
2.299911230802536011e-01
2.402814179658889771e-01
3.380265831947326660e-02
-4.428930580615997314e-03
-2.684272229671478271e-01
-4.523334279656410217e-02
-2.609954774379730225e-01
-2.316239029169082642e-01
-1.868744939565658569e-01
-1.212304159998893738e-01
-5.644765868782997131e-02
-4.902419075369834900e-02
1.857710070908069611e-02
-3.884149491786956787e-01
2.596446685492992401e-02
1.684048920869827271e-01
2.300104498863220215e-02
4.070895910263061523e-02
-7.348902523517608643e-03
-8.024262636899948120e-02
5.853967368602752686e-02
-1.966831088066101074e-01
-3.384956121444702148e-01
-5.037508010864257812e-01
-5.477553233504295349e-02
-4.476160109043121338e-01
-2.890346944332122803e-01
-3.364929556846618652e-01
-1.209445223212242126e-01
1.859209835529327393e-01
-7.731778174638748169e-02
-4.148715436458587646e-01
-5.360458493232727051e-01
-5.544595718383789062e-01
-1.905665844678878784e-01
-6.316869258880615234e-01
-5.867618918418884277e-01
-6.641314625740051270e-01
-4.132577180862426758e-01
-3.150109350681304932e-01
-3.036461770534515381e-01
-1.463482528924942017e-01
7.122754305601119995e-02
-3.142836689949035645e-02
3.890778869390487671e-02
8.209645748138427734e-03
7.157668471336364746e-03
7.894451916217803955e-02
-3.331130370497703552e-02
-3.384576737880706787e-02
-1.035818085074424744e-01
-5.065536126494407654e-02
-7.567291706800460815e-02
-5.008509755134582520e-01
-1.422333568334579468e-01
-1.562896817922592163e-01
-2.997054457664489746e-01
-3.914090245962142944e-02
-1.749440580606460571e-01
-3.030710853636264801e-02
-2.253094762563705444e-01
-1.537908017635345459e-01
-2.938034832477569580e-01
-1.034974157810211182e-01
-4.049708247184753418e-01
-2.024728953838348389e-01
-9.214007854461669922e-02
-3.608724176883697510e-01
-1.700798869132995605e-01
2.202552743256092072e-02
-2.581417933106422424e-02
4.559797048568725586e-02
-2.395351603627204895e-02
-7.113152742385864258e-02
-4.280104860663414001e-02
-7.821977883577346802e-02
2.040865272283554077e-02
3.153175860643386841e-02
-5.925052613019943237e-02
1.552791520953178406e-02
-6.298276782035827637e-02
-1.622519046068191528e-01
-5.642494931817054749e-02
-1.318172514438629150e-01
-1.963735669851303101e-01
7.649465650320053101e-02
1.474408507347106934e-01
1.946840900927782059e-03
-2.496331185102462769e-01
-7.631585001945495605e-02
1.555409282445907593e-02
5.555405467748641968e-02
-1.346007138490676880e-01
1.455439161509275436e-02
-1.025650799274444580e-01
2.987647056579589844e-02
-1.256941854953765869e-01
1.478456705808639526e-02
4.598088562488555908e-02
5.975615978240966797e-02
-5.496112629771232605e-02
-4.539870470762252808e-02
2.075850218534469604e-02
